<?xml version="1.0"?>
<opencv_storage>
<opencv_ml_svm>
  <format>3</format>
  <svmType>C_SVC</svmType>
  <kernel>
    <type>LINEAR</type></kernel>
  <C>1.</C>
  <term_criteria><iterations>100</iterations></term_criteria>
  <var_count>256</var_count>
  <class_count>29</class_count>
  <class_labels type_id="opencv-matrix">
    <rows>29</rows>
    <cols>1</cols>
    <dt>i</dt>
    <data>
      50 51 52 53 54 55 56 57 97 98 99 100 101 102 104 106 107 109 110
      112 114 115 116 117 118 119 120 121 122</data></class_labels>
  <sv_total>406</sv_total>
  <support_vectors>
    <_>
      7.05461025e-06 -3.90744117e-06 3.18487619e-05 -9.86489613e-06
      2.09208101e-05 -8.60209730e-06 -4.90816419e-05 -1.48705192e-04
      -9.72950511e-05 -1.30488959e-04 -3.14344725e-05 -5.43110673e-06
      3.52804018e-05 7.70491824e-05 6.05442365e-05 5.56338455e-05
      -6.14031990e-07 -2.48577708e-05 -3.66249697e-05 -6.94861592e-05
      -8.67969648e-05 -6.18554695e-05 -2.23564202e-05 5.44857312e-06
      1.56052192e-05 5.91489243e-06 -2.15624914e-05 -3.30298863e-05
      -7.75538720e-05 -5.99598898e-05 5.88390540e-05 8.13234292e-05
      -1.74999601e-04 -1.93682412e-04 -1.69013569e-04 -6.05492278e-05
      2.19438189e-05 -1.67196667e-05 -5.22975861e-05 -3.23316490e-05
      6.57580968e-05 5.40980400e-05 -9.82721849e-06 -1.53457459e-05
      2.43915802e-05 -1.01245110e-04 -4.80059607e-05 2.21303926e-05
      -1.53903151e-04 -1.37121111e-04 -9.63704297e-05 -6.81810634e-05
      -2.79746182e-05 1.39760441e-05 2.31771828e-05 2.10247108e-05
      -8.19852139e-05 -1.00494348e-04 7.44101199e-05 7.14853741e-05
      1.09153036e-04 5.93725817e-05 -5.75258855e-06 -3.51313247e-05
      4.17934280e-05 3.52375937e-05 3.32778131e-06 -1.62631277e-05
      -1.62631277e-05 1.88796403e-05 3.64510233e-05 5.22371411e-05
      5.61429188e-05 6.76179889e-06 -6.46641865e-06 6.08287373e-05
      -4.97062065e-05 5.86843234e-05 1.06916974e-04 2.33608735e-05
      -1.24761980e-04 -1.78422833e-05 7.79604889e-05 9.60629768e-05
      1.01200232e-04 1.02852995e-04 1.06104169e-04 1.61121541e-04
      1.04489882e-04 1.26442283e-05 2.29584311e-05 4.78497750e-05
      -9.18053956e-06 2.99053545e-06 9.50116373e-05 -2.42229144e-05
      -5.83584915e-05 -1.00881312e-04 -1.12706010e-04 1.81428368e-05
      9.16058998e-05 1.51235203e-04 2.27423996e-04 2.02536801e-04
      1.38844887e-04 1.15150629e-04 -6.09865965e-05 -8.54605241e-05
      -3.18663078e-05 1.00090074e-05 -1.23986074e-05 9.36682554e-05
      4.17934280e-05 3.51883828e-05 4.03307859e-05 3.18579368e-05
      8.82213499e-05 1.90695500e-04 2.24211253e-04 2.04661017e-04
      1.33890222e-04 1.61930584e-04 5.54099897e-05 -9.41124890e-05
      -5.42464259e-05 -1.38241612e-05 3.91236099e-05 -3.16447085e-06
      2.09054215e-05 3.84422710e-05 3.84422710e-05 1.79076451e-05
      2.44369348e-05 -8.49232663e-07 5.18122397e-05 1.05033359e-04
      5.88407602e-05 -6.82369064e-05 -1.63036922e-04 -1.74185843e-04
      -9.03145556e-05 -4.84735983e-06 3.96197829e-05 -3.58233519e-05
      7.88375037e-05 1.78287999e-04 1.92115520e-04 6.90553352e-05
      -9.21422179e-05 -1.38803211e-04 -2.31647777e-04 -3.58573219e-04
      -3.53469833e-04 -2.98312661e-04 -1.60592142e-04 4.62029238e-05
      2.98555649e-04 3.36177414e-04 2.42935130e-04 1.50695152e-04
      1.37368828e-04 1.11392801e-04 7.48778621e-05 2.87043434e-07
      -1.13269387e-04 -2.69567274e-04 -3.60533770e-04 -3.28642287e-04
      -3.76540003e-04 -2.71544675e-04 -1.01104546e-04 1.40579810e-04
      3.15794605e-04 4.12891619e-04 3.83058563e-04 2.25270676e-04
      9.84191356e-05 4.75516172e-05 -7.68867540e-05 -1.43542216e-04
      -1.99631599e-04 -2.97619321e-04 -2.54500337e-04 -2.66223331e-04
      -2.22122559e-04 -1.46472841e-04 8.72208911e-05 1.76544505e-04
      2.74524151e-04 5.01358008e-04 4.89200291e-04 3.63904168e-04
      -1.16252158e-04 -1.55991729e-04 -2.52760539e-04 -3.05692229e-04
      -2.11032413e-04 -1.40072530e-04 -1.13368442e-04 -1.73320645e-04
      -9.76941592e-05 1.73656626e-05 1.39014330e-04 1.47147352e-04
      2.24477160e-04 4.47391765e-04 4.02761798e-04 3.01830383e-04
      -6.39643549e-05 -8.64027024e-05 -9.49645546e-05 -1.04343715e-04
      -1.93840926e-04 -2.12004481e-04 -4.18848795e-05 8.14985106e-05
      1.80225270e-05 2.12858449e-05 3.31434567e-05 1.18669217e-04
      2.41472662e-04 2.22156552e-04 1.21371333e-04 -6.69542351e-05
      -9.73704737e-05 -7.72445710e-05 -5.36975786e-05 -1.25110382e-04
      -1.93207175e-04 -2.63791560e-04 -1.57113231e-04 -1.09506895e-04
      -2.51608662e-06 6.56165867e-05 -2.58197747e-06 1.39064112e-04
      1.37311508e-04 6.35369870e-05 5.56179884e-06 -1.21304758e-04
      1.54326219e-04 9.32201801e-05 -1.14289440e-04 -2.62160931e-04
      -2.17004446e-04 -1.51736182e-04 -1.27769905e-04 -4.95499517e-05
      -1.49430684e-06 6.46856279e-05 5.07665827e-05 1.50968524e-04
      1.90263512e-04 1.89528015e-04 8.23888986e-05 5.44338800e-05</_>
    <_>
      -1.14679511e-04 -1.45921236e-04 -1.41313707e-04 -1.50699678e-04
      -1.57267146e-04 -1.47492159e-04 -1.18724915e-04 -1.33314665e-04
      -8.47687916e-05 -7.62114068e-05 1.35619048e-05 6.15175086e-05
      7.91132115e-05 7.50241816e-05 5.74998703e-05 2.63928687e-05
      -1.28108077e-04 -1.37599010e-04 -1.59690549e-04 -1.50045336e-04
      -1.25760649e-04 -7.27509614e-05 -6.66587075e-05 -4.21497061e-05
      2.44527598e-07 3.79541525e-05 4.33990380e-07 -2.83397549e-05
      -4.03682452e-06 -7.19640866e-06 -5.74323963e-07 1.08438471e-05
      -8.02492796e-05 -7.96565291e-05 -8.62835805e-05 -5.40955480e-05
      1.01405640e-05 4.05808278e-05 3.26918307e-05 1.03984865e-04
      1.45208236e-04 1.32595640e-04 5.39704233e-05 -2.29803973e-05
      9.82160327e-06 -5.65520932e-05 -7.18250158e-05 -4.59338153e-05
      -6.50679503e-05 -5.92131291e-05 -4.46248960e-05 -1.90196752e-05
      3.11478107e-05 3.06549773e-05 4.22072262e-05 1.46486083e-04
      1.20276745e-04 2.88687334e-05 5.45174407e-05 -2.05067704e-06
      -1.76105405e-05 -6.23465094e-05 -6.96139396e-05 -3.89416055e-05
      -6.77626358e-21 -6.77626358e-21 6.10980715e-06 5.59889813e-05
      7.47318118e-05 1.01675840e-04 1.28037005e-04 1.19510347e-04
      9.55549258e-05 3.78717596e-05 9.09321025e-05 3.80456877e-05
      -2.09088594e-05 -5.84822337e-05 -4.94518681e-05 -6.25732137e-05
      2.64219182e-07 1.37665220e-05 8.38320775e-05 1.18443473e-04
      1.26578903e-04 1.53707544e-04 8.29206474e-05 5.80919950e-05
      4.85448618e-05 2.88823030e-05 8.26145406e-05 2.88792980e-05
      -2.84418888e-06 -5.05699645e-05 -4.65758894e-05 -7.34513451e-05
      2.62406447e-05 7.27219231e-05 9.11300012e-05 1.06877473e-04
      1.15391304e-04 1.15750881e-04 8.01037459e-05 3.15986399e-05
      1.58097992e-05 3.22279775e-05 2.98407194e-05 1.57249960e-05
      -3.12302996e-06 -2.77127001e-05 -3.61462407e-05 -3.97470249e-05
      3.70813250e-05 1.30933156e-04 1.20806086e-04 6.32590018e-05
      6.29901115e-05 2.62028607e-05 -8.41564179e-06 -2.29548459e-05
      -1.62051438e-05 3.00429929e-05 2.61166042e-05 -6.04559818e-06
      -2.84753787e-05 -4.08798187e-05 -1.82270214e-05 -1.94398326e-05
      1.36873292e-04 1.35915965e-04 1.28359316e-04 8.32531223e-05
      7.24911588e-05 -9.82812435e-06 -3.40527913e-05 -4.45396581e-05
      -4.77988542e-05 -3.59077130e-05 -2.49310051e-05 -2.72612397e-05
      -3.26708578e-05 -2.06470067e-05 -7.71359191e-06 -2.66399074e-05
      1.40562363e-04 1.71297070e-04 1.79184790e-04 1.22278230e-04
      5.12304578e-05 -3.77360124e-07 -1.33187195e-05 -9.47233275e-05
      -1.08862274e-04 -7.19168529e-05 -3.32248010e-06 9.93275080e-06
      3.80131496e-05 7.00791497e-05 3.31593910e-05 -1.56972892e-05
      1.10133209e-04 1.40765143e-04 1.14156072e-04 3.31288575e-05
      1.07869100e-05 6.62981529e-06 7.05306184e-06 7.45701129e-07
      -5.58518741e-06 4.18927775e-05 8.94317345e-05 1.38122836e-04
      1.33814538e-04 1.11734618e-04 1.01541649e-04 7.51963526e-05
      5.73357138e-05 5.41182271e-05 3.66175846e-05 -4.43556701e-06
      -1.47700193e-05 -4.40291624e-05 -1.93831438e-05 1.34813627e-06
      5.79799053e-05 1.17828044e-04 1.55972550e-04 1.60881464e-04
      1.48538151e-04 1.43403129e-04 1.18263895e-04 1.02771693e-04
      -4.42323872e-05 -5.15203392e-05 -7.49420651e-05 -9.78566604e-05
      -7.30663596e-05 -4.72861648e-05 -4.22292251e-05 -6.53197785e-05
      -2.08648653e-05 3.76254611e-05 7.50760737e-05 1.05679792e-04
      7.74282016e-05 9.29389425e-05 8.17637920e-05 5.17818371e-05
      -6.11254654e-05 -9.61992118e-05 -1.15571318e-04 -8.55670951e-05
      -9.08827060e-05 -9.61126134e-05 -6.68663051e-05 -3.05507165e-05
      5.67624966e-07 5.43016031e-05 8.75153200e-05 1.01219637e-04
      6.64207473e-05 1.56139140e-05 -2.07702433e-05 -3.67841785e-05
      -1.06685227e-04 -1.27884341e-04 -1.74795743e-04 -1.87726560e-04
      -1.94255539e-04 -2.09440055e-04 -1.54917172e-04 -1.37109979e-04
      -1.04249964e-04 -4.27700834e-05 -3.39685284e-05 7.83043106e-06
      1.62943616e-05 -1.05061308e-05 -1.32026298e-05 -3.75625314e-05
      -3.43730280e-05 -5.88345611e-05 -1.25104387e-04 -1.52582390e-04
      -1.52582390e-04 -1.68908620e-04 -1.57184782e-04 -1.14725932e-04
      -8.13579391e-05 -1.02562459e-04 -6.42437444e-05 6.95119306e-05
      8.57722334e-05 7.23916382e-05 4.29546417e-05 2.52603932e-05</_>
    <_>
      -2.30315472e-05 -1.98712096e-05 -1.37750503e-05 -2.42552596e-05
      -4.06957879e-05 -8.46970070e-05 -8.12500730e-05 -1.08042594e-04
      -2.30246460e-05 -1.12045855e-05 6.08823757e-05 5.03903757e-05
      4.99606831e-05 9.19700688e-05 6.37945559e-05 3.80061792e-05
      4.83514377e-05 3.21883017e-05 2.79956166e-05 1.17849049e-05
      -2.14845168e-05 3.38976606e-05 2.57849479e-05 2.09909376e-05
      1.53723049e-05 3.01574323e-06 -2.65493827e-06 -4.45276310e-05
      -8.52149969e-05 -5.58520078e-05 2.39366436e-05 1.75731548e-05
      8.77962157e-05 8.98525250e-05 7.17251678e-05 6.56665507e-05
      8.01635833e-05 6.20883875e-05 5.47221725e-06 -1.73577100e-05
      -7.59668692e-05 -1.14894523e-04 -1.54032226e-04 -1.77476526e-04
      -1.27607171e-04 -1.77653055e-04 -1.85922094e-04 -6.92469112e-05
      1.18019205e-04 1.41720942e-04 1.70503597e-04 1.01658770e-04
      7.90705017e-05 6.90044690e-05 9.23805783e-06 -7.39320058e-06
      -9.59573590e-05 -1.48097301e-04 -1.34295216e-04 -1.51030108e-04
      -1.57109884e-04 -2.01386807e-04 -2.22965347e-04 -1.20291297e-04
      2.12217215e-04 2.65603245e-04 2.46393436e-04 1.48836305e-04
      9.87666717e-05 5.43399219e-05 2.29917241e-05 4.58130444e-06
      3.08083543e-07 -9.13523691e-05 -1.23027276e-04 -1.57147224e-04
      -1.93015498e-04 -2.01734918e-04 -2.07101475e-04 -1.48352381e-04
      1.28877582e-04 2.06810495e-04 2.56845902e-04 2.19102236e-04
      2.12237253e-04 1.74392175e-04 1.93251894e-04 1.70356885e-04
      1.09362758e-04 4.18896088e-05 1.77236780e-05 -3.70098896e-05
      -6.15012978e-05 -1.26262472e-04 -1.36112518e-04 -1.08681430e-04
      1.32445959e-04 1.44513644e-04 1.59112184e-04 2.17744004e-04
      2.54040351e-04 2.63890426e-04 3.02253175e-04 2.76171428e-04
      1.72718152e-04 1.45225014e-04 1.12500900e-04 2.15883301e-05
      3.09459356e-05 8.27630356e-06 -2.46995914e-05 -8.62633840e-07
      1.46881473e-04 1.51844186e-04 1.44484948e-04 8.18443441e-05
      1.53878191e-05 -2.22679373e-05 -5.37987326e-05 -4.00407735e-05
      -1.74661727e-05 -4.69514362e-07 4.26387560e-05 -1.48865929e-05
      -7.44982317e-05 -3.22527558e-05 6.48937712e-05 8.36817053e-05
      3.49004658e-05 3.82058315e-05 4.61610325e-05 4.61610325e-05
      1.19645983e-06 -5.19683053e-05 -8.72805031e-05 -9.78772296e-05
      -1.44492355e-04 -9.52549162e-05 -1.10105939e-04 -3.05983885e-05
      1.41107230e-05 4.56932648e-05 4.76807290e-05 3.91587273e-05
      1.58448620e-05 2.38798166e-05 4.10975772e-05 1.65289251e-07
      -7.04916383e-05 -5.85036105e-05 -5.31488404e-05 -8.49258868e-05
      -7.13943591e-05 -3.37676065e-05 -4.44616217e-06 3.13550590e-05
      1.56110589e-04 1.98576701e-04 1.36232600e-04 1.30059736e-04
      6.09936542e-05 5.14956482e-05 3.68130145e-06 -3.20531290e-05
      -8.83404846e-06 -4.18773780e-05 -5.28486198e-05 -3.94198332e-06
      -5.89612719e-05 -3.49228831e-05 1.84407836e-05 1.71077598e-04
      2.14156767e-04 1.79250652e-04 1.30691813e-04 1.89636266e-04
      -8.24503604e-06 -1.87995993e-05 -4.71765961e-05 -6.15347089e-05
      -1.07275591e-04 -1.75923880e-04 -8.55579856e-05 -9.00567975e-05
      -7.94125372e-05 8.69657651e-06 8.16504980e-05 1.68415732e-04
      1.63989651e-04 1.42872130e-04 1.27530817e-04 1.95193410e-04
      1.38383793e-05 -7.20137177e-05 -1.28982429e-04 -1.78542032e-04
      -1.43532205e-04 -7.36976071e-05 -6.31385410e-05 -7.50339022e-05
      4.60947813e-05 7.32584813e-05 1.29127264e-04 1.29440697e-04
      1.22165773e-04 1.29319800e-04 1.73788634e-04 1.81234573e-04
      2.86220020e-05 1.60367490e-05 4.32998168e-05 4.93165535e-05
      9.98375344e-06 -4.14984897e-05 -4.42439996e-05 3.93579758e-05
      4.96862303e-05 1.24291855e-05 5.98139995e-05 9.64368228e-05
      8.91853997e-05 8.91264790e-05 8.20619898e-05 4.28849635e-05
      -3.45920707e-05 1.79590995e-06 9.80270579e-06 -7.53923450e-06
      -4.74723965e-05 -7.41738404e-05 -1.04712555e-04 -6.73234317e-05
      -4.19790740e-05 -3.14074132e-05 -1.85233384e-05 9.12160394e-05
      6.91399255e-05 1.18053777e-05 -5.27996926e-05 -8.45724571e-05
      -3.93643058e-05 -1.28587444e-05 -1.96665987e-05 -4.06677864e-05
      -3.77517499e-05 -9.18842779e-05 -1.06751730e-04 -5.02208422e-05
      -5.36588341e-05 -5.11537582e-05 -7.34965797e-05 4.95085587e-05
      1.85137633e-05 -9.38784342e-06 -1.42743784e-05 -4.73527143e-06</_>
    <_>
      -1.00394762e-04 -1.05996718e-04 -8.79220024e-05 -8.17996188e-05
      -6.77965436e-05 -4.49368854e-05 -5.15529428e-05 -5.32447484e-05
      1.71617085e-05 5.00225397e-05 1.01798250e-04 1.03473831e-04
      6.72337992e-05 7.12776964e-05 6.37644116e-05 2.12569794e-05
      -1.27375955e-04 -1.11920235e-04 -6.62854218e-05 -4.56355847e-05
      -6.28740891e-05 -4.74407898e-05 -2.09100162e-05 5.93484310e-06
      4.35049060e-06 1.00788918e-06 -1.60001855e-05 1.73452590e-05
      2.10865655e-05 5.25489886e-05 7.78793328e-05 1.59142201e-05
      -8.86169364e-05 -1.34539869e-05 2.04905573e-05 5.78103754e-05
      5.17973895e-05 6.89621666e-05 7.33985435e-05 5.06635624e-05
      8.94147252e-06 -5.34774808e-05 -9.67860396e-05 -4.36654009e-05
      -2.51243655e-05 -6.46536209e-05 -5.73084726e-05 -4.70957593e-06
      -2.17686556e-05 7.31300170e-05 1.07809145e-04 7.61210540e-05
      7.29133171e-05 6.61351514e-05 5.86836868e-05 2.99107796e-05
      -5.16586697e-05 -1.00123398e-04 -8.60865912e-05 -1.07681793e-04
      -8.82506502e-05 -8.60613145e-05 -9.25476998e-05 -7.81568633e-06
      1.28043321e-04 1.63028468e-04 1.66091471e-04 7.16875147e-05
      7.41370968e-05 8.15244712e-05 9.59189420e-05 6.64935797e-05
      1.11710133e-05 -6.07582842e-05 -8.34164894e-05 -1.19980839e-04
      -1.37902316e-04 -1.37689145e-04 -1.26401093e-04 -1.17555406e-04
      8.94958648e-05 1.33617155e-04 1.65149220e-04 7.19553063e-05
      1.03482744e-04 1.40044096e-04 1.83745637e-04 1.78572634e-04
      1.01386533e-04 3.28735550e-05 1.76883696e-05 -1.50426486e-05
      -3.23213644e-05 -9.03470936e-05 -9.26104476e-05 -1.02185120e-04
      1.22920552e-04 1.21949917e-04 8.52743833e-05 1.06581545e-04
      1.60125535e-04 1.68208062e-04 1.85200086e-04 1.47472310e-04
      1.04517007e-04 8.41554938e-05 4.83081349e-05 -2.73640053e-05
      2.30977207e-06 1.38884498e-05 -5.03840693e-06 6.34635435e-05
      1.99938499e-04 1.96787951e-04 1.82941745e-04 1.64343845e-04
      1.36306509e-04 1.23863370e-04 4.78572038e-05 2.69099073e-05
      -6.31686635e-06 -1.67592534e-05 -2.49048680e-05 -6.17528494e-05
      -8.17461696e-05 -5.96246937e-05 4.14319911e-05 9.63722996e-05
      2.10443352e-04 2.35601183e-04 2.24807372e-04 1.96656270e-04
      9.68787208e-05 1.34996171e-05 -9.90072931e-06 -9.48656088e-06
      -3.74847150e-05 -7.28245286e-05 -1.03789316e-04 -7.87190584e-05
      -7.39012612e-05 -4.13744019e-05 6.31538842e-06 1.95785415e-05
      1.45553495e-04 1.92203748e-04 1.78732735e-04 1.63928504e-04
      3.60854574e-05 -1.82393960e-05 -8.55779363e-05 -1.20563163e-04
      -1.37965544e-04 -1.32231129e-04 -5.58411957e-05 -1.70458425e-05
      5.03941264e-05 8.18880508e-05 5.28329365e-05 4.38692550e-05
      5.74587721e-05 1.28997490e-04 1.57348564e-04 1.20266232e-04
      1.84938162e-05 -8.04793963e-05 -1.34613059e-04 -9.76078663e-05
      -1.27022184e-04 -1.08112370e-04 -4.91878236e-05 8.38841152e-05
      1.27289342e-04 1.24035374e-04 1.12812770e-04 1.06711079e-04
      -2.05914148e-05 7.08327134e-05 1.23545833e-04 6.54855030e-05
      -1.94501517e-05 -1.33997280e-04 -9.11858660e-05 -1.18296797e-04
      -9.35662392e-05 -3.81992068e-05 9.36687684e-06 5.06474062e-05
      1.24578903e-04 1.22615384e-04 1.20365177e-04 1.33873997e-04
      -3.98147404e-06 2.53087637e-05 2.73378118e-05 -3.23305903e-05
      -1.68828410e-05 -7.28335135e-06 -5.55897168e-05 -8.43836315e-05
      -1.48002409e-05 2.42425767e-06 2.15051568e-05 3.78694531e-05
      9.69618268e-05 8.75545666e-05 9.17182188e-05 1.60023046e-04
      -1.84401324e-05 -6.14822420e-05 -5.12330298e-05 4.87289326e-05
      5.55658044e-05 9.06124296e-06 1.65693036e-05 5.50636687e-05
      4.54232613e-05 1.78141763e-05 1.73804290e-06 5.95917700e-05
      5.32935810e-05 5.04721866e-05 3.91297217e-05 2.06965833e-05
      -1.22225436e-04 -1.26425308e-04 -5.75826380e-05 -2.15597411e-05
      3.20615050e-06 -1.22241966e-06 -1.47925866e-05 -2.50490793e-05
      -2.64701757e-05 -9.03763066e-06 1.42879817e-05 8.12525104e-05
      9.38315861e-05 7.00456148e-05 6.90346569e-05 -7.69545932e-06
      7.99554201e-08 -1.54966201e-05 -5.81117893e-05 -8.60421569e-05
      -7.31646142e-05 -4.47585626e-05 -1.50111910e-05 -2.36367282e-06
      9.08174206e-06 -1.32391133e-05 -1.04357537e-06 9.69735629e-05
      8.93852193e-05 4.42691271e-05 2.49242585e-05 1.51363793e-05</_>
    <_>
      2.93321733e-04 2.14532862e-04 2.24089847e-04 8.33436134e-05
      1.18180765e-06 -1.57657181e-04 -1.71360327e-04 -2.53050530e-04
      -1.64989193e-04 -1.31373497e-04 2.67079668e-05 8.80901789e-05
      2.34764229e-04 3.53516138e-04 4.01500147e-04 3.04131827e-04
      1.11621594e-04 1.07057625e-04 4.86217941e-05 2.31088961e-05
      1.08667416e-04 1.85351440e-04 2.93728721e-04 2.45742529e-04
      2.25484153e-04 1.79174138e-04 5.74774022e-05 8.54230530e-05
      6.64846666e-05 1.57301125e-04 2.56160914e-04 2.61098321e-04
      -3.28368449e-04 -2.64013972e-04 -1.57565533e-04 2.16732842e-05
      9.01534586e-05 1.09571112e-04 1.32691552e-04 1.61500575e-04
      1.35069131e-04 1.29256805e-04 -2.26975917e-05 -1.00678935e-05
      5.85564339e-05 9.83100254e-05 1.21919074e-04 2.52768543e-04
      -1.57237577e-04 -1.57808667e-04 -1.02243852e-04 -5.64340226e-05
      -6.47844136e-05 -6.50978036e-05 -6.76908021e-05 -1.77614638e-05
      -5.76877283e-05 -6.78904835e-05 1.22995974e-04 6.85022897e-05
      1.08255488e-04 -5.35044128e-05 -1.69186769e-05 1.16825620e-04
      9.28265508e-05 9.11505849e-05 7.83137366e-05 6.17539918e-05
      6.06991089e-05 6.06991089e-05 8.21437498e-05 1.68801154e-04
      2.12717612e-04 1.49223255e-04 1.32914414e-04 1.06126885e-04
      7.80807750e-05 -1.00545607e-04 -3.94327344e-06 -5.27570446e-05
      -7.85176962e-05 -4.16650328e-05 3.53994437e-05 1.49607267e-05
      2.98404393e-06 8.38121650e-06 8.48535929e-05 1.70728948e-04
      1.67332852e-04 2.11051432e-04 2.93237506e-04 2.52361380e-04
      4.15385548e-05 -1.18485434e-04 -4.58141112e-05 -1.89050581e-04
      -9.88955871e-05 -1.27331878e-04 -1.90369479e-04 -1.27331878e-04
      -6.70790760e-05 -1.52630382e-05 1.51168686e-04 1.58532057e-04
      1.33066991e-04 2.48494529e-04 2.51556572e-04 3.15849029e-05
      -7.76432134e-05 -7.08503576e-05 -1.62001932e-04 -5.30368525e-05
      1.77576330e-05 1.10036035e-05 1.33344647e-05 -4.00162717e-05
      -7.61505289e-05 3.47387177e-05 2.64691880e-05 9.98452451e-05
      2.45972566e-04 1.87556361e-04 5.16859800e-05 -1.46071383e-04
      -2.33417988e-04 -2.74419406e-04 -2.12713654e-04 -5.51796074e-06
      6.20050923e-05 7.29288513e-05 6.84894476e-05 6.84894476e-05
      5.99720006e-05 1.80195875e-05 -1.37888219e-06 6.97307332e-05
      6.30647628e-05 -1.38641946e-04 -2.32179358e-04 -2.95796897e-04
      -3.21266562e-04 -3.25317786e-04 -1.40935183e-04 -5.38297536e-05
      1.20635785e-04 1.12371563e-04 5.81177301e-05 -4.37582421e-05
      -9.06247296e-05 -1.19804812e-04 -4.10732355e-05 -5.68756695e-05
      -1.67779712e-04 -1.07516920e-04 -4.48018218e-05 -2.01394232e-05
      7.26014987e-05 1.07130596e-04 1.92595289e-05 1.97528152e-05
      7.96281165e-05 1.03536586e-04 -1.45580152e-05 -1.31305758e-04
      -1.50777123e-04 -1.33597598e-04 -1.15096496e-04 -1.20736395e-05
      3.93920054e-05 1.12976144e-04 1.74365312e-04 2.04746859e-04
      2.03062198e-04 4.86550816e-05 1.71802967e-05 1.76951889e-05
      -1.18453565e-04 -1.77544032e-04 -1.76029804e-04 -1.26750965e-04
      -1.67111342e-04 -2.77315936e-04 -1.05935324e-04 -8.16560932e-05
      5.36949756e-06 4.19226635e-05 4.60959091e-05 1.20817058e-04
      1.04967847e-04 4.59895782e-05 6.20746068e-05 7.83366340e-05
      -1.66138052e-04 -2.67710217e-04 -3.07303009e-04 -3.07559094e-04
      -2.54996150e-04 -4.42626551e-05 9.63858765e-05 1.57927090e-04
      2.26831136e-04 1.86628837e-04 1.85409794e-04 1.12664355e-04
      -2.17029810e-05 -4.66421516e-05 -4.66335587e-05 5.17939552e-05
      -2.40627603e-04 -2.98139057e-04 -2.27917015e-04 -2.28489720e-04
      -9.87647727e-05 7.04914273e-05 7.60708690e-06 1.52868975e-04
      1.65896519e-04 1.23940845e-04 2.28354678e-04 9.93137510e-05
      -1.25116945e-04 -1.91381288e-04 -3.01925291e-04 -2.80667853e-04
      -1.84511926e-04 -2.09865117e-04 -2.40800931e-04 -2.09892940e-04
      -1.64339523e-04 -3.47853638e-04 -2.96889048e-04 -2.38774461e-04
      -3.01887136e-04 -3.18411971e-04 -4.64053679e-04 -5.03711228e-04
      -4.58614901e-04 -3.82521015e-04 -2.42958908e-04 -2.70319084e-04
      -2.00894297e-04 -1.46120277e-04 -3.05769354e-04 -2.55264342e-04
      -1.35363138e-04 -1.68483573e-04 -2.75041180e-04 -3.51461757e-04
      -2.52102094e-04 -3.58551071e-04 -5.33455110e-04 -2.87770818e-04
      -1.71417341e-04 -1.53359593e-04 -1.24989441e-04 -1.85629178e-04</_>
    <_>
      -9.22627078e-05 -9.81480771e-05 -7.81940325e-05 -6.99413940e-05
      -1.44041169e-05 -1.59119390e-05 2.09692607e-05 2.18358637e-05
      7.48368402e-05 4.89607046e-05 8.13257066e-05 6.30378781e-05
      4.21554905e-05 5.05196112e-05 1.50252899e-05 3.80184756e-05
      -1.04069419e-04 -5.47265627e-05 -4.77156173e-05 -1.41820203e-06
      4.38853976e-06 1.49319603e-05 -5.75855920e-05 -3.84398591e-05
      -3.98542616e-05 -4.74766384e-05 -4.21947952e-05 5.78657164e-05
      6.03478984e-05 9.61543046e-05 1.43833211e-04 9.01241438e-05
      -3.88049630e-05 1.90852697e-05 9.86549567e-05 1.70220927e-04
      1.21070349e-04 3.21980733e-05 -2.32495404e-05 -4.74223452e-05
      -5.53028876e-05 -5.23856070e-05 -8.00095440e-05 -4.46147460e-05
      3.56108612e-05 1.80139486e-05 -3.05950152e-06 6.54345204e-05
      4.38766328e-05 9.79794713e-05 2.11720442e-04 1.72303844e-04
      7.40930045e-05 1.75200657e-05 -1.70786025e-05 -1.85724984e-05
      -5.42966955e-05 -8.75940241e-05 -5.29520366e-05 -3.36562734e-05
      -1.78906612e-05 -5.20866820e-07 -8.07843662e-06 8.08737896e-05
      1.56385679e-04 2.42920200e-04 2.77399406e-04 1.75196139e-04
      9.00677260e-05 4.57291681e-05 4.87516036e-06 2.97733095e-06
      -6.88536102e-06 -6.17751066e-05 -7.67117235e-05 -6.30620489e-05
      -7.11703469e-05 -4.19382195e-05 2.67886917e-05 6.41225488e-05
      2.26179091e-05 1.27704028e-04 2.43629431e-04 2.03297488e-04
      1.31541237e-04 5.84241716e-05 1.23396039e-05 7.16180921e-06
      -3.06711518e-05 -6.19867642e-05 -2.53295129e-05 -4.47650600e-05
      -2.30283913e-05 -7.39905272e-06 3.77738434e-05 3.48309877e-05
      -2.48305150e-06 4.57629831e-05 1.29424647e-04 1.96171517e-04
      2.17905705e-04 1.06816558e-04 9.51573893e-05 3.25260880e-05
      -4.31186118e-06 -5.33749017e-06 -1.05959889e-05 -2.38735993e-05
      2.60879860e-05 2.35965654e-05 -2.41870239e-05 -4.71964595e-05
      -4.95538370e-06 2.41820489e-05 5.73172510e-05 8.82799432e-05
      1.98214693e-04 2.56385712e-04 1.88547274e-04 1.37362265e-04
      1.06777850e-04 1.28434825e-04 1.16993993e-04 4.09330714e-05
      -4.81710485e-05 -1.14349052e-04 -8.01395290e-05 -7.44741601e-06
      6.03819808e-06 4.29096617e-05 1.54250389e-04 1.90163642e-04
      2.05291624e-04 1.53109737e-04 6.87439242e-05 3.75292871e-06
      -3.98358789e-05 -5.97800645e-05 -2.50746598e-05 2.64994269e-05
      2.77967160e-06 -2.75635048e-05 -4.86596628e-06 3.46166098e-06
      7.11248940e-05 2.52975005e-04 2.81559798e-04 1.95244662e-04
      7.09286469e-05 -4.50198568e-05 -1.06025087e-04 -1.36253846e-04
      -1.75757610e-04 -2.01589355e-04 -1.42496210e-04 -6.28202397e-05
      4.75353081e-05 1.26997445e-04 8.84750480e-05 7.24530837e-05
      1.99097311e-04 2.73001264e-04 1.71972337e-04 7.98112160e-05
      -5.22393784e-05 -1.45678423e-04 -1.66058453e-04 -1.51899003e-04
      -1.76953385e-04 -1.40500488e-04 -8.50283250e-05 5.62405658e-05
      1.31356937e-04 1.58458701e-04 1.43456346e-04 1.62842451e-04
      8.37566477e-05 1.50953114e-04 1.27778418e-04 4.44955222e-05
      -6.99595184e-05 -1.79555384e-04 -1.46144987e-04 -1.60856172e-04
      -1.06927015e-04 -1.06330745e-05 4.32410307e-05 1.59073097e-04
      1.82901567e-04 1.77821843e-04 1.41262164e-04 1.43620797e-04
      3.89590459e-05 8.71741795e-05 6.52747694e-05 -2.39117344e-05
      -9.15209894e-05 -8.75115511e-05 -5.53582795e-05 -2.32444418e-05
      9.10829476e-06 1.63568275e-05 2.94393794e-05 1.00241392e-04
      1.32994159e-04 1.42850797e-04 8.97778737e-05 1.33552094e-04
      -1.44548685e-05 1.22109202e-06 1.36458024e-04 1.52266293e-04
      9.64544961e-05 9.56379154e-06 -8.13574006e-05 -6.90022498e-05
      -6.35381293e-05 -5.95372476e-05 4.98977727e-07 4.37606905e-05
      6.54278774e-05 2.93286066e-05 4.59098919e-06 6.72153556e-06
      -1.12173853e-04 -8.01751521e-05 -3.75791751e-05 -1.78252685e-05
      -1.63988389e-05 -7.25718201e-05 -1.00746831e-04 -6.82955870e-05
      -7.30009924e-05 -6.59143261e-05 1.38732867e-05 6.55738986e-05
      1.20706491e-05 -1.09785506e-05 -1.40581024e-05 -1.75126534e-05
      -4.09222594e-05 -3.30391813e-05 -9.38230223e-05 -1.25540362e-04
      -6.03059307e-05 -1.70385574e-05 5.50942495e-05 1.02945582e-04
      1.00634403e-04 3.39265607e-05 7.61042020e-06 5.27649645e-05
      6.41476945e-05 2.81254088e-05 3.19373503e-05 6.95109065e-06</_>
    <_>
      -1.28504224e-04 -1.44189748e-04 -9.00447558e-05 -3.73028124e-05
      4.06087966e-05 3.51782837e-05 -2.98455166e-06 1.57730119e-05
      3.69116315e-05 -1.81785381e-05 5.66443814e-05 -4.58846489e-06
      3.12161028e-05 7.37207592e-05 8.33368540e-05 1.36393846e-05
      -1.17628340e-04 -7.96112454e-06 6.67841814e-05 9.71867485e-05
      5.50756158e-05 2.25195140e-06 -2.37877339e-05 -2.66945826e-05
      -2.13178919e-05 -5.82623616e-05 -3.55630145e-05 -2.32288021e-05
      -1.06082352e-05 1.39092463e-05 6.07288566e-05 5.93975346e-06
      6.98177610e-05 1.47408224e-04 9.76821466e-05 9.62814447e-05
      3.49941038e-05 3.08496783e-05 5.11882206e-07 -5.78581348e-05
      -5.47383788e-05 -5.38377280e-05 -9.09002483e-05 -1.01112935e-04
      -1.87196383e-05 -3.92803922e-05 -7.43744749e-05 -6.56507473e-05
      7.32628832e-05 1.73635926e-04 2.15643740e-04 1.69273189e-04
      8.43562884e-05 5.30121906e-05 -2.63083784e-05 -2.73995101e-05
      -6.96815914e-05 -9.36586293e-05 -4.90273596e-05 -4.27740779e-05
      -1.04895171e-05 -4.87370635e-05 -8.68773350e-05 -2.50486573e-05
      2.17972760e-04 2.85894843e-04 2.38452572e-04 1.96016612e-04
      1.00844489e-04 6.95003910e-05 -8.24410017e-06 -4.72823376e-06
      -7.05146704e-06 -6.34632015e-05 -6.56338962e-05 -4.96646207e-05
      -3.06316870e-05 -5.90692725e-05 1.96770816e-05 -6.17998667e-05
      1.63484161e-04 2.46791256e-04 2.19868700e-04 1.89245693e-04
      1.09088593e-04 3.44394466e-05 -4.06575815e-20 -4.06575815e-20
      -3.14110803e-05 -7.46814476e-05 -7.18419033e-05 -4.71464082e-05
      -2.94656820e-05 -4.97538495e-05 -5.16700165e-05 -6.96164989e-06
      1.51447995e-04 1.74644985e-04 1.63679724e-04 1.63803881e-04
      9.34418131e-05 4.41269694e-05 -4.06575815e-20 -3.24078974e-06
      -3.27700800e-05 -5.66943418e-05 -1.07368636e-04 -9.09026930e-05
      -9.39424135e-05 -1.59250667e-05 1.15501398e-05 1.30569417e-04
      1.21853343e-04 1.87157377e-04 2.17057517e-04 2.03881762e-04
      1.49054889e-04 1.00759382e-04 2.86131382e-07 -6.15942008e-06
      -1.89204893e-05 -9.84930957e-05 -1.16701485e-04 -1.18384516e-04
      -1.03420702e-04 -2.55844907e-06 1.84929697e-04 1.85085810e-04
      3.03640973e-05 1.00707970e-04 1.20374090e-04 1.54110239e-04
      1.26204672e-04 1.38925010e-04 5.91019525e-05 -2.44204602e-05
      -9.00906452e-05 -1.16175135e-04 -1.31331268e-04 -6.88986620e-05
      -8.14864325e-05 5.17264634e-05 2.23724797e-04 1.68524319e-04
      6.12950971e-05 1.19921533e-04 1.59674659e-04 1.54945446e-04
      1.26250816e-04 1.27793857e-04 2.82718902e-05 -6.35841352e-05
      -4.45115802e-05 -3.23045133e-05 -2.51847450e-05 -4.80450544e-05
      6.85184350e-05 1.79788098e-04 2.92722048e-04 2.74639140e-04
      1.02298236e-05 6.01449210e-05 3.75130003e-05 2.94292277e-05
      2.23892421e-05 2.36641281e-05 -3.67046159e-05 -3.66103450e-05
      -1.49000247e-04 -1.09804270e-04 -8.15256790e-05 2.17618363e-05
      1.76594142e-04 2.67850264e-04 2.94243975e-04 2.18885543e-04
      -6.34271055e-05 -8.72202872e-05 -1.11358371e-04 -1.38635252e-04
      -1.85286117e-04 -1.34275586e-04 -1.09825211e-04 -1.60085910e-04
      -1.25892839e-04 -4.04331913e-05 3.20451582e-05 1.12920519e-04
      2.33502986e-04 3.12409713e-04 2.84350535e-04 2.14183616e-04
      -3.12075717e-05 -6.53200696e-05 -9.30084498e-05 -1.24038546e-04
      -9.81762860e-05 -7.94825391e-05 -7.44038189e-05 -9.09152441e-05
      2.30736787e-05 5.05595417e-05 8.89462972e-05 2.09821868e-04
      2.49521137e-04 2.31553015e-04 1.79112030e-04 1.35622118e-04
      -4.08678279e-05 -7.45470534e-05 -1.27340114e-04 -1.14308627e-04
      -7.47112645e-05 -8.62437373e-05 -9.35643402e-05 -1.65884048e-05
      2.23998850e-05 5.36940679e-05 1.55905625e-04 2.17635839e-04
      1.71511740e-04 3.55261727e-05 -3.80476413e-05 -1.58361770e-04
      -6.20218052e-05 -5.10003811e-05 -3.53844371e-05 3.30491957e-06
      2.79328378e-05 -1.01936261e-04 -1.05812644e-04 -3.08176495e-05
      2.03590189e-05 4.87593643e-05 1.67665112e-05 2.85559254e-05
      -1.14138302e-05 -6.05716705e-05 -7.86140154e-05 -8.89341900e-05
      3.07671962e-06 -3.62228093e-05 -7.54637076e-05 -1.00414371e-04
      -2.96578673e-05 -2.94892402e-06 1.02176600e-05 6.59790021e-05
      4.72348511e-05 5.99174018e-06 -5.06132164e-05 3.12819939e-05
      9.13796248e-06 -2.07185967e-05 -2.77049676e-05 -2.73580008e-05</_>
    <_>
      -3.66581444e-05 -5.61594024e-05 -3.97793665e-05 -5.93648692e-05
      -3.42648127e-05 -7.43262208e-05 -8.18266926e-05 -5.37503365e-05
      -1.06999114e-05 -3.54521831e-06 4.35269685e-05 6.31703442e-05
      9.75252697e-05 1.36290109e-04 7.39670868e-05 3.70864655e-05
      -5.71428427e-05 -3.03370216e-05 -1.36832823e-05 3.01911155e-06
      3.82053804e-06 4.10475150e-06 5.92323413e-05 7.60816547e-05
      6.54058749e-05 5.59792352e-05 3.22144188e-05 -1.32780488e-05
      -9.16377485e-06 2.49045297e-05 8.72499950e-05 1.05264036e-04
      -6.83530889e-05 -4.12515074e-05 3.95379830e-05 1.13055961e-04
      1.08067659e-04 1.04218496e-04 9.52051414e-05 9.56877557e-05
      9.20065722e-05 9.04511035e-05 4.83976437e-05 2.21847095e-05
      2.80371569e-05 -1.75646855e-05 8.63488731e-06 -6.36194864e-06
      -4.59269504e-05 -3.68252513e-05 -2.59193930e-05 7.31713953e-06
      4.18949821e-05 2.43005866e-06 3.21282096e-06 -5.66621975e-06
      -5.12706829e-05 -8.72834062e-05 -2.15073578e-05 2.31658723e-05
      4.82886207e-05 -2.19878148e-05 -2.90364587e-05 -7.75719309e-06
      1.92608295e-05 4.43582712e-06 1.89426970e-07 -4.55859026e-06
      -4.55859026e-06 -4.55859026e-06 -4.55859026e-06 -2.61448554e-06
      -7.15124861e-06 -6.43612366e-05 -8.01816932e-05 -2.14086940e-05
      -4.47458524e-06 -5.87320437e-06 1.31643601e-05 3.35302752e-06
      -5.12270308e-05 -3.56243072e-05 -2.14346210e-06 1.75721891e-06
      4.03261629e-06 9.06947025e-06 5.27222110e-05 5.10097270e-05
      1.68340321e-05 -4.51242595e-05 -6.60275036e-05 -7.19174059e-05
      1.59722167e-05 7.28969371e-06 5.09288766e-05 2.67795367e-05
      -2.88209540e-05 -3.10732248e-05 -3.60847189e-05 -8.77995262e-06
      6.82277096e-06 1.57315135e-05 9.87708845e-05 1.02760852e-04
      3.37712117e-05 5.90178970e-05 3.82033904e-05 -3.61340426e-05
      4.20381457e-06 4.77882531e-05 7.82945135e-05 9.65877989e-05
      8.28194425e-06 5.80003070e-05 1.09989320e-04 1.28402869e-04
      1.18973730e-04 1.40349715e-04 1.42983248e-04 1.41819575e-04
      1.00500787e-04 6.82515019e-05 8.52430967e-05 5.04335803e-05
      1.68382085e-05 5.51047960e-05 1.32274959e-04 1.74715475e-04
      4.69200677e-05 9.66991283e-05 1.78096554e-04 2.19413254e-04
      2.03895732e-04 9.60385369e-05 5.86563510e-05 1.98787347e-05
      1.13075212e-05 1.01255100e-05 -4.57233291e-05 -5.99122832e-05
      -4.26539882e-05 3.67069515e-05 1.11810448e-04 1.23948761e-04
      2.09229838e-04 2.27629309e-04 2.85549409e-04 2.02623065e-04
      6.69386791e-05 -5.48176613e-05 -9.17552243e-05 -1.10514637e-04
      -1.43323399e-04 -1.61966003e-04 -1.51071072e-04 -7.44634162e-05
      3.18165257e-05 1.58303970e-04 1.69032035e-04 1.50510328e-04
      2.49740609e-04 2.47410178e-04 1.95716959e-04 5.45799521e-05
      -6.56598640e-05 -1.17533476e-04 -1.43838173e-04 -1.36505696e-04
      -1.71385982e-04 -1.47828192e-04 -8.85816989e-05 8.35945684e-06
      1.34629576e-04 2.40870533e-04 2.35945321e-04 2.00666997e-04
      1.18907781e-04 1.46638515e-04 5.79135012e-05 -3.80282945e-05
      -1.64001001e-04 -1.95940651e-04 -1.78971037e-04 -1.66383426e-04
      -1.24733837e-04 -7.90496124e-05 -3.43111096e-05 9.12599935e-05
      1.67740523e-04 2.84455804e-04 2.41746035e-04 2.10884697e-04
      5.63167896e-06 7.93033541e-05 1.59186566e-05 -7.29667372e-05
      -1.20360739e-04 -1.18864184e-04 -1.20198187e-04 -1.27339692e-04
      -7.45065190e-05 -2.20804195e-05 1.46358052e-05 1.00686928e-04
      1.65066929e-04 2.55774765e-04 1.86899080e-04 1.65361227e-04
      -8.46637704e-05 2.53193139e-05 8.60583023e-05 7.05361817e-05
      2.59485714e-05 -3.23133609e-05 -4.24729296e-05 -9.05427623e-06
      2.17118595e-05 5.79740918e-05 8.74613979e-05 1.62323311e-04
      1.70565065e-04 1.58767521e-04 9.06624191e-05 6.05966561e-05
      -1.12936177e-04 -7.10361419e-05 2.83951817e-06 8.66422306e-06
      -6.61185550e-06 -9.64574501e-05 -1.24297585e-04 -9.73917704e-05
      -6.33683085e-05 -2.56607345e-05 -6.93695911e-05 1.12709167e-05
      -2.17088359e-06 7.50154359e-05 1.02867132e-04 8.29948767e-05
      -1.04629456e-04 -1.10197951e-04 -1.41687429e-04 -1.12221009e-04
      -5.81383974e-05 6.52981316e-06 1.36700137e-05 3.30325529e-05
      5.34864666e-05 -9.64298670e-06 -9.51127076e-05 5.30157479e-07
      6.59352809e-05 1.30420085e-04 1.20399935e-04 9.34559139e-05</_>
    <_>
      -3.85703825e-05 -2.16473800e-05 -2.18739006e-05 -2.94841921e-05
      -2.93648591e-05 -6.11873038e-05 -9.64148712e-05 -1.70292755e-04
      -1.34708345e-04 -1.13720991e-04 -6.35269607e-05 -6.98248914e-05
      -4.26789957e-05 -3.56223768e-06 1.58079529e-05 1.74325833e-05
      -4.94087581e-05 -3.81500940e-05 -2.78914013e-05 -3.87581495e-05
      -4.24004320e-05 -1.16159332e-04 -1.19471297e-04 -9.22309991e-05
      -7.91596540e-05 -7.62524942e-05 -9.00910818e-05 -1.23463687e-04
      -9.68990862e-05 -7.17906514e-05 -3.14937315e-05 -2.17677689e-06
      -9.98576797e-06 9.91963498e-06 6.10227762e-05 9.72979979e-05
      8.26603355e-05 -1.57519535e-05 -1.49091820e-05 -3.25426954e-05
      -4.83743897e-05 -6.29089991e-05 -1.18305688e-04 -1.58501323e-04
      -1.33481866e-04 -1.58934810e-04 -1.20186203e-04 -6.07423171e-05
      1.78955343e-05 6.45161927e-05 1.48798252e-04 1.63355944e-04
      4.52084751e-05 3.48581889e-05 5.60246917e-05 3.94018207e-05
      -1.94074655e-05 -5.31994738e-05 -3.79022713e-05 -6.08816517e-05
      -6.85137493e-05 -1.33422494e-04 -1.50103893e-04 -1.05206498e-04
      3.03225606e-05 1.39534037e-04 2.24778982e-04 2.23612587e-04
      1.41033583e-04 9.61426194e-05 7.62799973e-05 4.81759344e-05
      4.52155327e-05 -5.33254979e-06 -2.08209403e-05 -2.76471710e-05
      -1.10300789e-05 -2.68270960e-05 -6.39651480e-05 -1.02362799e-04
      -4.02552432e-05 8.90791998e-05 2.28355129e-04 2.34271720e-04
      1.71404332e-04 1.13599330e-04 6.37480189e-05 9.31539180e-05
      9.47682784e-05 4.18848613e-05 2.40286008e-05 -2.18314653e-06
      2.01128878e-05 6.57576629e-06 -6.16695570e-06 -4.51511078e-05
      -3.27726957e-05 4.90334241e-05 1.52744236e-04 1.74502245e-04
      1.11715693e-04 5.30968782e-06 1.59217198e-05 3.45471608e-06
      -3.78069526e-05 -5.36464431e-05 -3.52565730e-05 -2.25279036e-05
      1.51892764e-05 9.64104947e-06 1.92446623e-05 3.78203076e-05
      5.83412020e-06 8.61364315e-05 2.32819191e-04 1.97134097e-04
      1.29225678e-04 -4.64675541e-05 -7.34644855e-05 -8.72030578e-05
      -1.08388806e-04 -1.31260938e-04 -8.94552868e-05 -6.81513338e-05
      -7.57461094e-05 -5.01480899e-05 6.87669381e-05 1.00028556e-04
      7.45746365e-05 1.27169260e-04 2.14210304e-04 2.04229014e-04
      1.46139020e-04 4.70661616e-05 -1.66834798e-05 -2.59446297e-05
      -5.59968357e-05 -6.96518109e-05 -1.25602732e-04 -1.03814840e-04
      -9.72065318e-05 -4.33268033e-05 2.24664927e-05 7.61290066e-05
      9.38597950e-05 1.50483538e-04 2.24227857e-04 1.72405256e-04
      2.24817086e-05 -2.79502183e-05 -1.06221865e-04 -1.65648031e-04
      -1.79434821e-04 -1.59692092e-04 -1.48384788e-04 -1.09702283e-04
      -6.92577623e-06 4.84151824e-05 2.37607728e-05 6.14855089e-05
      5.26584045e-05 1.46052640e-04 1.65371748e-04 7.07226209e-05
      7.55797237e-06 -7.07654544e-05 -1.59758623e-04 -1.27258347e-04
      -1.04527819e-04 -9.65590079e-05 -6.57034543e-05 4.88641803e-08
      1.24500148e-04 1.54910274e-04 1.06575040e-04 9.53967537e-05
      -2.22204999e-05 8.28562625e-05 1.09278335e-04 3.63364270e-05
      -6.05072237e-05 -1.01413010e-04 -9.37443911e-05 -1.00937490e-04
      -8.11499121e-05 -4.83454605e-05 -2.01604598e-06 4.04185048e-05
      1.37167488e-04 1.37375086e-04 9.49296373e-05 1.03907223e-04
      -4.94650776e-05 4.59730691e-05 3.84009727e-05 -2.26294742e-05
      -4.55890840e-05 -9.46088312e-06 3.09682832e-06 -9.93590493e-06
      -3.87992827e-07 6.41050462e-07 1.11998188e-05 1.05633917e-04
      1.26778963e-04 8.69956421e-05 4.77566937e-05 9.30035458e-05
      -6.86117128e-05 -2.59858189e-06 5.14336425e-05 5.97979524e-05
      2.22624203e-05 2.37912172e-05 1.89980292e-05 2.32162693e-05
      1.69787054e-05 1.66837253e-05 5.47264499e-05 1.48583378e-04
      1.19366196e-04 2.89647924e-05 2.81001053e-06 -7.10980657e-06
      1.90788023e-06 2.35211428e-05 3.42414824e-05 8.00660109e-06
      -1.69726500e-05 -7.45251600e-05 -9.40068712e-05 -6.53115640e-05
      -5.05237367e-05 4.50213111e-06 5.23072522e-05 8.21658105e-05
      1.56053211e-05 -1.34467882e-05 -5.19675223e-06 -1.78563896e-05
      7.12221081e-05 6.10235184e-05 -3.23415443e-05 -8.22878355e-05
      1.88377908e-05 1.96970450e-05 -6.90588568e-05 -3.33955977e-05
      3.40035222e-05 -2.98278082e-05 -4.72695101e-05 1.49268844e-05
      3.31136507e-05 4.72680003e-05 3.22584092e-05 2.52821410e-05</_>
    <_>
      -2.07168450e-05 -3.92310867e-05 -1.78540649e-05 -9.69961256e-05
      -6.56913471e-05 -4.42544770e-05 -5.27954398e-05 -1.28084357e-04
      -4.46170961e-05 4.37742056e-05 4.96286957e-05 3.04128462e-05
      -1.43880852e-05 2.86903814e-05 1.56917667e-05 1.35525272e-20
      -7.87367098e-05 -7.93177969e-05 -8.14979358e-05 -4.16224357e-05
      -1.22481260e-05 2.94457968e-05 -6.81095617e-06 -3.33150674e-05
      -4.64890445e-06 -2.11069306e-07 6.44950296e-06 4.63119650e-05
      5.95592646e-05 1.68703627e-05 -7.51316793e-06 -1.97663085e-05
      -1.51859000e-04 -1.08704597e-04 -6.13345110e-05 6.00548665e-05
      1.52931942e-04 1.50656851e-04 1.02583872e-04 7.34204586e-05
      4.33931018e-05 2.11491861e-05 -1.41487588e-04 -3.18952880e-05
      1.98373000e-05 -9.30544338e-05 -1.14268747e-04 -5.61815941e-05
      -1.25934559e-04 -4.19940479e-05 3.05976682e-05 5.57960811e-05
      7.43547425e-05 7.81610652e-05 7.33484558e-05 6.65720218e-05
      -2.75789516e-05 -8.24868985e-05 -1.14291679e-05 -3.87516011e-05
      4.26836914e-06 -8.02474169e-05 -1.52850873e-04 -8.44321185e-05
      7.48623643e-05 1.62489770e-04 1.79293900e-04 1.47000261e-04
      1.17070878e-04 1.83101394e-04 1.95677261e-04 1.81374839e-04
      1.13458045e-04 6.27523259e-05 4.01945144e-05 -7.36771472e-05
      -5.45326948e-05 -7.42422853e-05 -6.91500827e-05 -6.13634911e-05
      4.76897585e-05 1.33688925e-04 1.83866432e-04 1.33547786e-04
      2.14360931e-04 2.21343740e-04 1.88985432e-04 1.35795650e-04
      4.92781364e-05 5.11742155e-06 -2.69522170e-05 -8.51120276e-05
      -9.48068828e-06 -4.02543956e-05 -8.80485604e-05 -1.39293639e-04
      6.86804779e-05 1.08689732e-04 1.56917988e-04 1.08344488e-04
      1.86207559e-04 1.55279980e-04 1.03194878e-04 -8.71270458e-06
      -6.50961665e-05 -8.83264365e-05 -1.66713900e-04 -1.75169203e-04
      -1.59212723e-04 -1.38598814e-04 -1.07752981e-04 -1.08959088e-04
      1.12700327e-04 1.81013645e-04 2.42799069e-04 2.12509840e-04
      1.42901554e-04 1.12939793e-04 4.05339524e-05 -2.22091421e-05
      -1.13263042e-04 -1.68047991e-04 -1.84491277e-04 -2.25096577e-04
      -2.67534953e-04 -2.24954056e-04 -1.09851178e-04 -2.58382315e-05
      8.48139098e-05 1.53048983e-04 2.29576050e-04 2.02347903e-04
      1.34051224e-04 8.41813162e-05 3.63751278e-05 -5.30161378e-05
      -1.70532905e-04 -2.02759096e-04 -2.64261529e-04 -2.90071941e-04
      -2.86138529e-04 -2.12865634e-04 -5.63373178e-05 1.37572761e-05
      1.48376363e-04 1.84331235e-04 1.91643267e-04 1.06551808e-04
      1.08655004e-04 1.31945766e-04 6.53655152e-05 -1.62070501e-04
      -2.19856316e-04 -2.43035684e-04 -2.43571689e-04 -2.33564089e-04
      -1.49692787e-04 -4.96092507e-05 -1.26741215e-05 5.32097838e-05
      1.61132819e-04 1.70258470e-04 1.33165391e-04 2.54951046e-05
      5.37877313e-05 -2.00257364e-05 -4.97120564e-05 -4.84156808e-05
      -5.85843627e-05 -1.04188250e-04 -8.19880224e-05 -2.24355717e-05
      4.48583196e-05 4.76512687e-05 5.16152286e-05 4.83109834e-05
      4.56496564e-05 6.49106369e-05 7.63909557e-05 -4.53457833e-05
      -1.01288722e-04 -1.08137989e-04 -1.25756458e-04 -8.15664098e-05
      -8.79401123e-05 -9.74595241e-06 4.56736889e-05 7.27758088e-05
      6.15979588e-05 4.26412771e-05 4.26412771e-05 3.62527644e-05
      2.16114422e-05 1.37437974e-05 -2.71783156e-05 -7.34719943e-05
      -8.69483119e-05 3.44257896e-05 5.37183078e-05 2.36535943e-05
      -1.88029298e-05 -2.04099288e-05 2.43743907e-05 4.91704759e-06
      -4.04073762e-06 -1.15076336e-05 -3.41461491e-05 8.09579433e-06
      -8.11492791e-05 -7.36365910e-05 -1.06501438e-05 3.26595837e-05
      1.25699053e-05 5.58279025e-05 7.92708524e-05 6.23225496e-05
      4.39187897e-05 1.75808254e-05 2.44785565e-06 -7.75079316e-05
      -9.35114222e-05 -4.92328836e-05 1.20880793e-06 -4.23872734e-05
      -1.41282522e-04 -5.64488073e-05 -7.70394035e-05 -1.53782574e-04
      -1.46344071e-04 -1.75322290e-04 -9.90853950e-05 8.12953317e-07
      4.00814315e-06 3.10615396e-05 2.80374625e-05 -1.82152744e-05
      -5.21717229e-05 9.32567218e-06 1.07550288e-04 9.13527256e-05
      -2.32556577e-05 -5.91251046e-05 -1.28283806e-04 -1.67020145e-04
      -1.12712027e-04 -1.16061463e-04 -7.09614033e-05 -3.74989941e-05
      7.05023267e-05 5.08876001e-05 4.12124100e-05 1.68510189e-04
      1.41521436e-04 1.41521436e-04 9.27478031e-05 9.55979704e-05</_>
    <_>
      -7.32004119e-05 -8.62076049e-05 -7.26091894e-05 -8.28585326e-05
      -9.22749896e-05 -1.17222909e-04 -1.40709599e-04 -1.51884378e-04
      -1.41556942e-04 -1.55984031e-04 -1.27829466e-04 -3.82969702e-05
      4.89819904e-05 9.75337898e-05 9.89068794e-05 1.05627805e-04
      -8.73777681e-05 -9.99674739e-05 -1.33645459e-04 -1.54050998e-04
      -1.62663098e-04 -1.53405475e-04 -1.43915036e-04 -1.25358289e-04
      -1.18908800e-04 -1.17332274e-04 -1.29494249e-04 -8.60709551e-05
      -1.77339934e-05 1.81244031e-05 4.46912090e-05 8.01972055e-05
      -1.16601615e-04 -9.53068593e-05 -8.75380792e-05 -4.26270381e-05
      -1.29795797e-06 2.36072810e-05 1.92930820e-05 5.90455193e-06
      -2.16249555e-05 -5.48107128e-05 -8.32379374e-05 -4.06843064e-05
      -4.63241759e-06 -2.46072796e-05 -3.77250726e-05 1.82465719e-05
      -5.03353804e-05 -1.00540274e-05 1.30549879e-05 -1.01979585e-05
      1.09819130e-05 1.67740600e-05 1.39701260e-05 3.84136692e-05
      2.46081345e-05 2.11470233e-05 -4.85214150e-06 -4.02101205e-06
      2.84719317e-05 2.01514376e-05 -1.93983597e-05 -5.89884166e-06
      5.57202111e-05 5.57202111e-05 5.05404969e-05 4.60857773e-05
      7.23402845e-05 7.99211775e-05 8.99166334e-05 1.07548687e-04
      9.11733659e-05 7.16828217e-05 9.78874305e-05 4.95392815e-05
      4.54490291e-05 2.20656348e-05 1.12835562e-06 -4.34392059e-05
      7.30799948e-05 1.04176936e-04 1.26835628e-04 1.40709191e-04
      1.37321098e-04 7.92229403e-05 6.72494425e-05 4.31537264e-05
      3.25189758e-05 6.10450734e-05 7.76921734e-05 1.17042131e-04
      1.16192197e-04 7.27806691e-05 1.88313134e-05 -2.31537124e-05
      1.06624029e-04 1.38338582e-04 1.34894799e-04 7.56502777e-05
      1.88013637e-05 -1.09153061e-05 -1.35525272e-20 -5.64292941e-06
      -2.15950568e-05 -2.89773870e-05 -3.23695676e-05 7.23124822e-06
      4.91632163e-05 5.03113661e-05 6.47200213e-05 2.21730988e-05
      1.21860074e-04 1.54310314e-04 1.21310390e-04 3.69105255e-05
      -1.43163979e-05 -1.99672886e-05 -2.46335585e-05 -2.86729319e-05
      -4.20563156e-05 -6.60980513e-05 -9.13285548e-05 -1.12358350e-04
      -1.55746529e-05 8.39972927e-06 1.01437086e-04 1.96516448e-05
      1.31031571e-04 1.41096141e-04 1.16001094e-04 2.53884264e-05
      -1.28078555e-05 -2.90233802e-05 -3.63318723e-05 -4.69236547e-05
      -7.69084072e-05 -1.04991384e-04 -1.60263487e-04 -1.53820394e-04
      -3.70222333e-05 3.68982328e-05 1.06958621e-04 5.33725033e-05
      1.42722361e-04 1.48274703e-04 1.25986611e-04 2.47027074e-05
      -3.01693672e-05 -3.39196777e-05 -4.25508370e-05 -7.73322172e-05
      -1.15651397e-04 -1.24072627e-04 -1.08594431e-04 -7.73959182e-05
      4.83252988e-05 1.20543482e-04 1.67803999e-04 8.11798818e-05
      8.37908374e-05 1.46738283e-04 1.32630972e-04 2.50779467e-05
      -1.90126848e-05 -6.05159257e-05 -6.89740409e-05 -8.82693348e-05
      -1.27967796e-04 -1.18113625e-04 -7.62117925e-05 3.82690414e-05
      9.53107810e-05 1.64074590e-04 1.94805354e-04 1.10255896e-04
      2.40202717e-05 9.75156509e-05 9.88264655e-05 1.57629074e-05
      -7.40588730e-05 -1.11660156e-04 -1.16159848e-04 -1.39018259e-04
      -1.09643959e-04 -5.26531367e-05 1.69792547e-05 5.90507116e-05
      1.05991989e-04 1.68438564e-04 1.78972099e-04 1.13538590e-04
      4.61503405e-05 4.00033750e-05 5.08578851e-05 -1.47547735e-05
      -1.07019048e-04 -1.16204152e-04 -8.07761826e-05 -5.49683355e-05
      -7.94480002e-06 -6.31878095e-07 5.58421125e-05 6.87845968e-05
      1.32317000e-04 1.82739896e-04 1.51238331e-04 1.03159990e-04
      -9.22476102e-06 -2.89466207e-05 -2.01778330e-05 6.43516796e-06
      -1.09316716e-05 -4.75915222e-05 -4.46524173e-05 -1.06532498e-05
      1.54177778e-05 4.16889088e-05 5.80005326e-05 8.59799038e-05
      1.12203597e-04 1.09931789e-04 6.31335497e-05 1.21749426e-05
      -2.05425531e-05 -1.40592567e-06 3.12544830e-06 -2.42331407e-05
      -1.86468569e-05 -2.52928658e-05 -8.70802978e-06 -5.64334687e-06
      -6.06824460e-06 -2.29492107e-05 1.90558203e-05 5.52255151e-05
      3.20946710e-05 4.69615370e-05 3.89442102e-05 3.57727487e-07
      -4.27861523e-05 -2.59982771e-05 -5.33593266e-05 -4.25931103e-05
      -1.21951671e-05 -2.43590111e-05 7.50294066e-06 2.93977173e-05
      -1.00427224e-06 -3.42997700e-05 -3.51568960e-05 2.69540487e-05
      8.48159198e-06 -1.22856118e-05 3.20711915e-05 4.69884180e-05</_>
    <_>
      -1.60842290e-04 -8.63299792e-05 -3.52965399e-05 -3.64634434e-05
      -4.90258608e-05 -4.44478355e-05 -3.96531577e-05 -3.43657230e-05
      1.63557834e-05 9.67314281e-06 3.68692927e-05 -3.33064818e-05
      -5.47144964e-06 4.71814110e-06 4.13892940e-06 -3.72694497e-20
      -1.07653112e-04 -1.29141090e-05 2.04747721e-06 -5.89913907e-05
      -6.79185468e-05 -1.73886492e-05 -3.88384287e-05 -6.11463838e-05
      -3.25495857e-05 -1.29543378e-05 -3.45497938e-05 2.09136924e-05
      1.32475889e-05 -8.51012646e-06 6.26840517e-07 -1.15395846e-06
      6.91320110e-06 7.59364702e-05 1.16491239e-04 9.97939424e-05
      1.02610757e-04 7.47178055e-05 3.66574495e-05 6.87332504e-05
      2.63570691e-05 -1.69540108e-05 -1.79247054e-05 5.58362171e-06
      5.58280844e-05 1.50917040e-05 -2.65283179e-05 -2.98494924e-05
      9.13633630e-05 1.69234321e-04 1.42497534e-04 1.35067763e-04
      1.14777118e-04 4.73529035e-05 6.58144927e-05 5.19504974e-05
      1.23901564e-05 -6.74455669e-06 2.85120791e-06 1.26549594e-05
      5.49205788e-06 4.28246894e-05 4.14500901e-05 -3.79744197e-05
      1.98884314e-04 2.15650507e-04 1.81492505e-04 1.65056976e-04
      1.01129059e-04 8.41346337e-05 5.29233293e-05 3.62497194e-05
      5.37238921e-05 -4.50310927e-06 -3.00025440e-05 -4.91365172e-05
      -8.18864792e-05 -3.71539427e-05 4.39798823e-05 4.00401150e-05
      1.43794343e-04 2.11288250e-04 2.75198399e-04 2.19565380e-04
      1.48409934e-04 1.23740916e-04 5.76570674e-05 3.91971262e-05
      -5.89070123e-06 -1.25344186e-05 -5.91779963e-06 -8.28205157e-06
      -3.29006361e-05 -7.94077132e-05 8.71482143e-07 7.83618743e-05
      1.72939210e-04 1.83821860e-04 1.87939950e-04 2.03849049e-04
      1.96775320e-04 1.77278358e-04 2.42403970e-04 1.98059177e-04
      7.61110423e-05 6.86306084e-05 6.36206096e-05 5.62882360e-06
      -2.36042506e-05 -5.11308353e-05 4.28331332e-05 1.42366116e-04
      2.66843010e-04 2.45131552e-04 2.54268060e-04 2.21521608e-04
      1.87119847e-04 2.09036851e-04 1.76440459e-04 2.09547477e-04
      1.74489222e-04 9.98191827e-05 7.57408343e-05 2.05625429e-06
      -4.44419238e-05 1.48860602e-06 1.41863115e-04 1.84560035e-04
      2.42909096e-04 1.45547820e-04 1.58960494e-04 1.78113231e-04
      1.39388329e-04 9.14466946e-05 2.81120283e-05 -1.76413573e-06
      -5.00019669e-05 -2.46752916e-05 -5.78605104e-05 -6.18676713e-05
      -4.55014197e-05 -3.69002100e-06 8.72467208e-05 1.60567666e-04
      2.46235606e-04 1.85328230e-04 1.80243238e-04 9.17441503e-05
      -1.93780124e-05 -4.34593821e-05 -7.76229135e-05 -1.60334239e-04
      -1.79675393e-04 -1.72204658e-04 -1.23432532e-04 -1.07091488e-04
      -4.12767804e-05 3.04122877e-05 5.83619367e-05 8.06616881e-05
      2.06249431e-04 1.97753630e-04 1.20410077e-04 3.90926762e-05
      -5.06840152e-05 -8.72582750e-05 -1.71710315e-04 -1.58954572e-04
      -1.41595505e-04 -1.18496784e-04 -7.91458515e-05 -2.65106191e-05
      5.38374443e-05 6.22004300e-05 3.83075167e-05 1.20032055e-05
      1.20899618e-04 1.46180464e-04 1.02770762e-04 -8.14319174e-06
      -9.76392112e-05 -1.62340904e-04 -1.17985102e-04 -1.22080572e-04
      -1.22802681e-04 -7.53533168e-05 -2.49341101e-05 -3.72694497e-20
      -3.72694497e-20 -3.72694497e-20 -3.72694497e-20 -3.72694497e-20
      4.04166858e-05 9.34317577e-05 4.21336190e-05 -1.33099502e-05
      -4.18030468e-05 -7.94254302e-05 -2.89036634e-05 -3.34514698e-05
      1.03422644e-05 3.19320316e-05 3.20961190e-05 -6.87319016e-07
      -4.29343936e-06 -1.04959663e-05 -1.04959663e-05 -4.43679392e-06
      -1.14579496e-04 -4.99227508e-06 6.38816055e-05 1.43314042e-04
      1.23113525e-04 1.31521840e-04 1.32794463e-04 1.12458612e-04
      1.22353435e-04 1.22456855e-04 1.29862892e-04 5.52163365e-05
      5.29887002e-05 2.96846865e-05 6.11150681e-05 1.41103419e-05
      -2.00912953e-04 -1.54699926e-04 -9.49603418e-05 -1.17073338e-04
      -6.22324878e-05 -3.86848660e-05 1.06025000e-05 5.70681623e-05
      5.94978665e-05 5.24544121e-05 4.51325286e-05 5.72191384e-05
      8.92038006e-05 1.02906444e-04 7.94077787e-05 4.06337567e-05
      -4.60089504e-05 -5.54369581e-05 -1.31999506e-04 -2.01002797e-04
      -1.55707094e-04 -1.32287911e-04 -1.06147781e-04 -2.34206946e-05
      3.14029203e-05 4.40775875e-05 -1.45810445e-05 1.34357935e-04
      1.69352221e-04 1.70682688e-04 7.74647051e-05 3.06062830e-05</_>
    <_>
      -9.43198247e-05 -1.08714252e-04 -1.16194540e-04 -1.30153872e-04
      -1.33341600e-04 -9.24362612e-05 -1.30238477e-04 -1.67060265e-04
      -6.98770309e-05 -8.51506629e-05 -6.81185120e-05 -1.41607215e-05
      -2.82502447e-06 5.98206971e-05 1.06847940e-04 1.25806691e-04
      -1.19225238e-04 -1.38599076e-04 -1.52951819e-04 -1.51315486e-04
      -1.15809627e-04 -7.50144900e-05 -5.54725739e-05 -5.08394514e-05
      -4.71880339e-05 5.02861485e-06 1.02724343e-05 2.33123646e-05
      -1.10391402e-05 -8.38408141e-06 5.81194727e-05 6.67456552e-05
      -1.46635517e-04 -1.48549836e-04 -8.37011612e-05 -2.06553268e-05
      5.81228705e-05 7.83598589e-05 4.60512165e-05 2.69143293e-05
      1.34859974e-05 3.95671577e-06 -6.75218544e-05 -1.22510261e-04
      -1.21724057e-04 -1.87811995e-04 -1.65874793e-04 -8.60083019e-05
      -5.09657730e-05 -3.25160108e-05 1.92427979e-05 4.25025173e-05
      5.72879944e-05 8.11144200e-05 8.86429480e-05 6.34971366e-05
      1.13335409e-05 -2.15578675e-05 1.32644109e-05 -9.71519694e-05
      -7.46856094e-05 -1.39464435e-04 -1.69324456e-04 -1.26057726e-04
      7.24978527e-05 9.81640187e-05 1.16217838e-04 1.27573017e-04
      1.22883008e-04 1.23627644e-04 1.32622095e-04 1.32535759e-04
      1.63806049e-04 1.27713909e-04 7.85681768e-05 -5.59293367e-05
      -4.50818079e-05 -3.33352582e-05 -5.46324591e-05 -7.59390605e-05
      2.42506540e-05 1.30380053e-04 1.88284554e-04 1.94250766e-04
      2.53677077e-04 2.46884912e-04 2.54776067e-04 2.33422557e-04
      1.73133245e-04 1.00320642e-04 6.45812543e-05 -9.28887766e-06
      1.87679343e-05 -1.17621505e-06 -1.16325882e-05 1.72403148e-07
      3.41043597e-05 8.66836490e-05 8.29835917e-05 9.60398174e-05
      9.22673280e-05 1.32862537e-04 2.26847653e-04 2.04239957e-04
      1.05609230e-04 6.16395628e-05 -2.91042743e-05 -9.08060028e-05
      -9.84628859e-05 -1.28248153e-04 -8.53906313e-05 -1.73761673e-05
      3.20717190e-05 9.33540505e-05 1.07939755e-04 7.08005027e-05
      9.76791944e-06 5.17713452e-05 4.51216329e-05 2.33064620e-05
      -7.79843958e-06 -6.61903687e-05 -9.32258336e-05 -1.64716956e-04
      -2.47315213e-04 -2.03500153e-04 -9.94916918e-05 -1.13668202e-05
      6.04424313e-05 1.27150895e-04 1.32667396e-04 1.11946982e-04
      5.69007025e-05 4.45416881e-05 2.37219901e-05 -7.19923128e-06
      -5.80343767e-05 -1.03649771e-04 -1.51057538e-04 -1.96524474e-04
      -2.44506053e-04 -1.73031687e-04 -1.05366089e-04 -6.47116904e-05
      6.73847899e-05 1.36734889e-04 1.64739919e-04 1.28982603e-04
      -1.30759654e-05 3.64131915e-06 3.03733123e-06 -7.16496579e-05
      -1.02333426e-04 -1.07225198e-04 -8.23029259e-05 -9.22022955e-05
      -8.03286093e-05 -1.14131253e-05 -2.04358594e-06 -2.04358594e-06
      1.11747850e-05 7.78638278e-05 4.93656007e-05 -4.55538748e-06
      2.78954371e-06 -3.88550798e-05 -1.22278234e-05 -2.30927963e-05
      -9.45785814e-07 -7.06674064e-06 1.71417432e-05 6.43007952e-05
      4.01893340e-05 4.01893340e-05 4.01893340e-05 4.01893340e-05
      -6.74951225e-05 6.96129064e-06 -9.81335324e-06 -5.14109634e-05
      -1.31883426e-04 -1.26928731e-04 -4.74990047e-05 1.58877447e-05
      7.95615852e-05 7.09785454e-05 9.61086625e-05 9.57114025e-05
      6.39917271e-05 7.87848185e-05 7.87848185e-05 7.87848185e-05
      -3.66305430e-05 1.59800111e-05 -8.15946260e-06 -6.29326678e-05
      -6.10787611e-05 -5.17285407e-05 5.85695161e-05 6.95998388e-05
      1.48356936e-04 1.35828872e-04 9.32310068e-05 5.64684124e-05
      6.07480761e-05 7.44860445e-05 7.44860445e-05 1.03160142e-04
      -2.18932146e-05 -1.25527704e-05 1.71947650e-05 -9.96560630e-07
      -8.01251826e-06 5.16172877e-05 9.48400339e-05 1.04871062e-04
      1.07003209e-04 8.01303904e-05 6.81655947e-05 4.46978556e-05
      3.08600011e-06 -1.49079297e-05 -6.03821391e-05 -9.58072851e-05
      -9.95966620e-05 -8.82496824e-05 -8.71587617e-05 -1.28037427e-04
      -1.28794200e-04 -1.20936653e-04 -1.00454228e-04 -9.15517812e-05
      -5.53158206e-05 -5.92693686e-05 -8.17105174e-05 -6.17788319e-05
      -1.36558709e-04 -1.26725499e-04 -6.75664051e-05 -3.90948153e-05
      9.90934132e-06 1.80335683e-05 -4.80281924e-05 -1.27007996e-04
      -1.59665855e-04 -1.60293814e-04 -1.47390587e-04 -1.23126025e-04
      -6.08894661e-05 -9.48642191e-05 -9.73066708e-05 2.28223162e-05
      -3.49805123e-05 -3.49805123e-05 -1.92816224e-05 -5.91745720e-06</_>
    <_>
      -1.47869301e-04 -3.38475438e-05 -6.92775711e-06 -4.79046248e-05
      -8.41890142e-05 -8.68018906e-05 -1.27317297e-04 -1.42324308e-04
      -1.08656641e-04 -4.32155066e-05 -1.32829846e-05 6.23563610e-05
      1.11374116e-04 1.44127946e-04 1.93371874e-04 1.17263407e-04
      -1.29030494e-04 5.73711004e-05 -1.40717993e-05 -1.03603779e-04
      -8.90295778e-05 -6.85089399e-05 -6.41539882e-05 -8.45748145e-05
      -1.12194146e-04 -1.07352033e-04 3.34009906e-06 4.88657424e-05
      6.44405736e-05 9.49725218e-05 1.58703944e-04 5.98859151e-05
      -5.08620178e-05 7.72583444e-05 1.20774283e-04 1.45470651e-04
      1.68085346e-04 1.60083713e-04 1.13480302e-04 4.34391177e-06
      -7.58386741e-05 -2.19898266e-05 -6.36966506e-05 -8.85779373e-05
      -7.33231791e-05 -1.10950430e-04 -6.63021565e-05 -3.41711930e-05
      -5.81811437e-05 3.28884162e-05 8.64158355e-05 1.67368475e-04
      1.30343411e-04 1.41425058e-04 9.87555104e-05 1.42166973e-05
      -4.10257417e-05 -3.44758955e-05 4.75443121e-05 3.28075112e-05
      -2.48157121e-05 -1.06142405e-04 -1.17437827e-04 -6.58698191e-05
      1.64708035e-05 1.37366005e-04 1.38659932e-04 1.49672254e-04
      1.28448446e-04 1.91383209e-04 1.63491015e-04 1.26011626e-04
      8.02261275e-05 7.22636760e-05 6.36471887e-05 -7.42687262e-05
      -5.75851045e-05 -6.41048882e-06 -4.83744734e-05 -4.63137330e-05
      -5.39612811e-05 4.70339510e-05 1.42165023e-04 1.46351915e-04
      1.28043670e-04 2.04296914e-04 2.16221990e-04 2.21335635e-04
      1.87142694e-04 1.36466973e-04 -2.03349064e-05 -9.86716768e-05
      1.35287337e-05 7.03208207e-05 6.27642657e-05 4.91472201e-05
      -4.60558040e-05 -5.06297783e-06 4.12931768e-05 8.91310701e-05
      1.30318818e-04 1.35925089e-04 2.45786301e-04 2.05055665e-04
      9.13110271e-05 2.10225498e-05 -1.51067972e-04 -1.79414390e-04
      -1.37773741e-05 -1.53721267e-05 5.54624748e-05 6.06853937e-05
      -8.36982963e-06 6.76535419e-05 1.23753518e-04 1.43471712e-04
      1.74547400e-04 2.34360006e-04 2.25911994e-04 1.64163721e-04
      6.01716529e-05 -2.11402294e-05 -1.50502543e-04 -1.80876494e-04
      -1.10298686e-04 -8.97215432e-05 6.44753527e-06 8.68845964e-05
      1.96663386e-05 9.99090844e-05 1.65007295e-04 2.25278171e-04
      2.30761187e-04 2.51830992e-04 2.39478322e-04 8.84203982e-05
      -8.03020812e-05 -1.60241281e-04 -1.99826245e-04 -1.60912692e-04
      -1.02181351e-04 -2.63098718e-05 2.52345144e-05 7.89744590e-05
      1.15630486e-04 1.41994358e-04 1.67878752e-04 2.05437260e-04
      1.81481344e-04 2.04868993e-04 1.06549945e-04 -1.00550067e-04
      -2.44595547e-04 -2.43361967e-04 -1.27580919e-04 -1.28071142e-05
      1.02776394e-04 1.23508391e-04 7.01891331e-05 1.32308138e-04
      1.27127045e-04 1.46992155e-04 6.63780156e-06 -4.91055252e-05
      6.58459903e-05 5.37011365e-05 -3.56742094e-05 -1.00847436e-04
      -1.45116646e-04 -1.03040875e-04 4.39673458e-05 1.61992168e-04
      3.02994711e-04 2.00052382e-04 1.14529452e-04 1.70819942e-04
      8.55982289e-05 6.56457705e-05 -3.52246461e-05 -8.01255665e-05
      -1.35588358e-04 -5.10942591e-05 -7.90673439e-05 -6.03445551e-05
      -9.36808428e-05 -5.86748029e-05 1.25619146e-04 2.25511380e-04
      2.79200205e-04 2.03760399e-04 1.42036020e-04 2.09272010e-04
      5.01925315e-05 1.60351210e-05 -1.39875210e-05 -1.71244130e-04
      -1.92150750e-04 1.00878351e-05 6.83705221e-05 6.44806642e-05
      4.20517827e-05 9.36505676e-05 1.56344046e-04 2.16343091e-04
      2.13459803e-04 1.30188797e-04 1.10855326e-04 1.70267071e-04
      -3.53880750e-05 -1.38124478e-05 -1.35582404e-05 -7.13821355e-05
      -6.53340903e-05 3.91592084e-06 4.92874133e-05 8.34397142e-05
      1.12338290e-04 1.54487410e-04 1.85973142e-04 1.50299937e-04
      1.01350852e-04 8.19515190e-05 7.40201940e-05 2.50418234e-05
      3.14794088e-05 5.23050585e-05 2.23838597e-05 -2.17867237e-05
      -8.56232873e-05 -1.87933969e-04 -2.09038219e-04 -8.93826145e-05
      -6.29670758e-05 -3.50502305e-05 -6.56524353e-05 -6.31612565e-05
      -1.00855126e-04 -2.54838378e-05 6.62785678e-05 1.34663816e-04
      2.27689598e-05 6.78042197e-05 2.00361756e-05 -8.65188340e-05
      -1.43803074e-04 -1.34226750e-04 -1.06777428e-04 -3.52750503e-05
      4.30568798e-05 -4.02666519e-05 -1.21915276e-04 5.58157699e-05
      8.51974619e-05 8.79384097e-05 1.05317507e-04 1.46468767e-04</_>
    <_>
      -1.74324276e-04 -1.14099443e-04 -1.12499920e-05 4.76012101e-05
      8.41145084e-05 7.96934110e-05 -4.60446427e-05 -1.21734207e-04
      -8.50845026e-05 -1.20718054e-04 -9.45223292e-06 2.94517622e-06
      2.19409321e-05 3.77289543e-05 7.32427216e-05 8.43819216e-05
      -2.76097504e-04 -1.82443255e-04 -2.28753197e-04 -2.24025323e-04
      -1.72199958e-04 -2.67737778e-05 1.34786620e-04 1.97440473e-04
      2.03463700e-04 8.73904428e-05 3.98623961e-05 9.77267337e-05
      2.72960115e-05 -1.53241908e-05 1.23602527e-04 1.96847948e-04
      -3.27849557e-04 -3.20384977e-04 -3.16725112e-04 -2.31643920e-04
      -1.51279353e-04 -8.10388374e-05 7.80420887e-05 6.55604745e-05
      7.26496728e-05 3.08422159e-06 -2.43640807e-05 -5.00649048e-06
      -3.48827598e-05 -1.09252003e-04 -5.09179772e-05 1.65566686e-04
      -1.76362679e-04 -1.61937322e-04 -1.12171641e-04 -6.98791773e-05
      -3.08155541e-05 -1.14050408e-05 1.50711814e-04 1.49828222e-04
      1.49097381e-04 2.69929860e-05 1.18938449e-04 1.48151710e-04
      2.85759106e-05 -6.46392291e-05 -1.26020896e-04 -1.36902263e-05
      -1.35525272e-20 -1.35525272e-20 -4.83381245e-06 -1.02718514e-05
      -1.02718514e-05 4.97653218e-06 1.42853605e-04 2.14068874e-04
      2.97356513e-04 8.26460455e-05 9.89283653e-05 1.09993460e-04
      -2.94869951e-05 -5.73164434e-05 -1.19594639e-04 -7.97336616e-05
      -1.19660690e-04 -8.58741405e-05 -1.33738422e-05 -4.92720483e-06
      -1.35525272e-20 1.23869195e-05 1.33799927e-04 2.48080702e-04
      2.71981786e-04 8.53270976e-05 1.08680702e-04 4.77803951e-05
      3.04435689e-05 -1.26106432e-04 -9.61939077e-05 -1.71533989e-04
      -9.29130038e-05 -1.20364573e-04 -1.79491035e-04 -1.20364573e-04
      -8.65780312e-05 -6.50405855e-05 1.43372221e-04 2.34598658e-04
      2.21426380e-04 8.71042866e-05 2.21620194e-05 -7.39919051e-05
      -7.31905384e-05 -1.51393178e-04 -4.26334918e-05 -2.01349740e-05
      1.81998421e-05 1.09767461e-04 9.63936182e-05 2.88205210e-05
      -9.89323144e-06 -9.18429305e-06 4.57205024e-05 1.54310037e-04
      9.28435475e-05 -2.72014568e-05 -1.55750131e-05 -1.33898589e-04
      -2.18838133e-04 -1.07896594e-04 1.23130114e-04 9.92130881e-05
      6.27580721e-06 3.89100060e-05 3.89100060e-05 3.89100060e-05
      2.34245053e-05 -6.98873482e-05 3.81949685e-05 5.97856160e-05
      7.42318321e-07 -1.34847854e-04 -2.25182463e-04 -1.39563359e-04
      -4.21409532e-05 -1.09544580e-05 -3.45813373e-06 5.46981391e-05
      -1.35525272e-20 -1.35525272e-20 -1.35525272e-20 -5.91264579e-05
      -1.62868877e-04 -1.80837800e-04 -1.29633248e-04 -7.45825309e-05
      -8.50883953e-05 -1.55494388e-04 -1.84538949e-04 -7.04892882e-05
      1.17666103e-04 1.99692106e-04 4.31869339e-05 -1.84379496e-05
      -1.35525272e-20 -1.90049341e-05 -1.12002519e-04 -1.86622172e-04
      -2.29267069e-04 -2.67072173e-04 -1.71617750e-04 -6.18283811e-05
      -9.92063215e-05 -2.32618095e-05 8.60428045e-05 2.45055242e-04
      2.67863943e-04 2.08678990e-04 6.39187128e-05 5.01360773e-05
      -1.53161673e-04 -1.63196470e-04 -1.95306624e-04 -2.41723668e-04
      -2.75028840e-04 -3.43696971e-04 -1.45270737e-04 -1.29343316e-04
      1.08927925e-05 2.22852119e-04 3.15279147e-04 3.37759557e-04
      3.40368511e-04 2.71402329e-04 2.25615571e-04 2.42551730e-04
      -1.86870908e-04 -2.22618037e-04 -2.49929086e-04 -3.31582414e-04
      -3.18357343e-04 -2.37457818e-04 -2.87673756e-05 -1.13333308e-05
      1.58127034e-04 1.71864260e-04 2.80501496e-04 2.94789701e-04
      2.76155188e-04 2.14807762e-04 1.25409060e-04 1.19617805e-04
      -1.05752180e-04 -2.03781412e-04 -2.68467731e-04 -3.13821831e-04
      -2.93173565e-04 -7.88055913e-05 -1.08641771e-05 1.70843763e-04
      1.40500750e-04 1.06772968e-04 2.42168069e-04 2.51094636e-04
      9.01489620e-05 -9.07073772e-05 -1.30505912e-04 -1.50771593e-04
      1.15925635e-04 9.42381230e-05 1.29676646e-05 -7.55779765e-05
      -3.92977272e-05 -3.49842412e-05 5.18435700e-05 4.84139237e-05
      -2.13914554e-05 -3.65371779e-05 -1.13138296e-04 -4.87323596e-05
      -1.52383960e-04 -2.51539663e-04 -1.72662956e-04 -1.55521440e-04
      2.59590393e-04 1.78058108e-04 -3.54001058e-05 -7.27834195e-05
      -5.54084145e-05 -1.23349208e-04 -1.32094312e-04 -1.02152815e-04
      -1.09770037e-04 -1.79066250e-04 -2.62582238e-04 -4.42890014e-05
      -4.32151210e-05 -9.05320121e-05 -3.30411967e-05 -8.85639292e-06</_>
    <_>
      -5.72969802e-05 -5.53031678e-05 -8.70971271e-05 -1.37995565e-04
      -1.73952445e-04 -1.31301451e-04 -1.16271149e-04 -1.34463990e-04
      -1.41283395e-04 -1.37187424e-04 -8.96388592e-05 -7.96620297e-05
      -5.57756102e-05 -2.84514936e-05 -1.06101706e-05 -1.26311556e-06
      -6.60544174e-05 -5.24169955e-05 -5.69533549e-05 -1.01673540e-04
      -1.31725348e-04 -3.68151741e-05 -2.07684698e-05 -7.69624530e-05
      -1.34969727e-04 -1.73760767e-04 -1.60939846e-04 -1.31672656e-04
      -1.22672820e-04 -1.08283035e-04 -4.64696132e-05 -2.11017523e-05
      -3.04253240e-06 3.06210313e-05 6.58562058e-05 5.72741956e-05
      4.03534650e-05 1.12583701e-04 8.49701901e-05 5.11526514e-06
      -9.13030090e-05 -1.19071883e-04 -1.46023929e-04 -1.48741761e-04
      -1.06180880e-04 -1.29825887e-04 -1.20832781e-04 -4.63566284e-05
      6.59772486e-05 8.33445883e-05 1.21021541e-04 8.74384932e-05
      9.56491494e-05 1.26210944e-04 8.88904688e-05 4.46912272e-05
      -5.48398784e-05 -1.03745850e-04 -1.01270773e-04 -7.87771351e-05
      -4.02900914e-05 -7.50461622e-05 -8.93502729e-05 -1.22059893e-04
      6.61570302e-05 1.04822466e-04 1.40059565e-04 1.18629076e-04
      1.49332060e-04 1.35484239e-04 8.49058779e-05 2.90648168e-05
      -6.74664079e-06 -5.58067804e-05 -6.67963905e-05 -6.22451407e-05
      -5.79086409e-05 -7.32198096e-05 -7.99911722e-05 -4.85687051e-05
      3.87425207e-05 9.02243410e-05 1.54114125e-04 1.36309129e-04
      1.57785820e-04 1.17188683e-04 7.45227881e-05 7.89213118e-06
      1.95516513e-05 2.21898044e-05 9.99202530e-06 9.78608114e-06
      6.61263839e-05 -4.92959180e-06 -2.08032325e-05 4.27548293e-05
      3.52757925e-05 1.03586106e-04 1.00747158e-04 1.05596526e-04
      1.25322811e-04 8.02413269e-05 9.60463221e-05 5.27560005e-05
      4.72693755e-05 4.34891444e-05 7.87715180e-05 2.50824487e-05
      1.36800436e-05 -2.15668661e-05 -1.90606461e-05 -2.80453114e-05
      1.02120157e-05 1.01899474e-04 1.48820633e-04 1.47296712e-04
      1.04529820e-04 7.84139484e-05 5.01078684e-05 5.66951458e-05
      5.51775993e-05 5.82804860e-05 -7.08435937e-06 -9.95724404e-05
      -1.05978921e-04 -1.23214559e-04 -9.23904663e-05 -4.91158789e-05
      1.56453443e-05 8.31486177e-05 1.45142869e-04 2.12668368e-04
      2.06692406e-04 1.52079971e-04 1.37211784e-04 8.94495170e-05
      4.03438062e-05 1.60599375e-05 -6.71627204e-05 -1.15577030e-04
      -1.29967084e-04 -8.76547565e-05 -6.23525484e-05 -3.96656214e-05
      1.25830396e-04 1.69853723e-04 2.21822673e-04 2.14918939e-04
      1.51236221e-04 1.20531164e-04 7.71340274e-05 3.35158220e-05
      -7.60275407e-06 -2.26085212e-05 -4.98991585e-06 1.03453203e-06
      -2.27167020e-05 -3.43525608e-05 -4.29352767e-05 -4.98515328e-05
      4.36158334e-05 1.29397522e-04 1.62073033e-04 1.49388026e-04
      1.08675194e-04 5.95371675e-05 7.66241374e-06 -2.85068036e-05
      2.06262393e-06 6.87035572e-05 1.07213222e-04 1.35528622e-04
      1.09858913e-04 3.38119535e-05 6.15923273e-06 -1.04062447e-05
      -2.92860659e-05 2.71757945e-05 6.70042209e-05 9.25269851e-05
      -2.24898995e-05 -9.80545228e-05 -1.19857243e-04 -3.38468017e-05
      2.31063932e-05 7.15263523e-05 1.27759980e-04 1.65872334e-04
      1.64556855e-04 1.09568813e-04 4.31319022e-05 2.99178537e-05
      -7.45686484e-05 -3.35259974e-05 1.56289479e-05 -7.43843486e-07
      -3.40546503e-05 -8.18662229e-05 -4.45191981e-05 2.31473268e-06
      6.80922822e-05 9.41431354e-05 1.49816769e-04 1.54128080e-04
      1.40814445e-04 1.16212104e-04 5.35138352e-05 1.66209502e-05
      -1.01321610e-04 -5.04557684e-05 4.92915133e-05 5.99625455e-05
      7.57542730e-05 9.99524582e-06 -3.75879463e-05 -3.23055501e-05
      3.50204255e-06 4.50800071e-05 3.62129649e-05 6.77308417e-05
      6.49277135e-05 5.16263281e-05 4.42586388e-05 2.45175306e-05
      -9.63681377e-05 -7.31445543e-05 -3.39071789e-06 -7.94266634e-06
      -4.51243477e-06 -8.70958975e-05 -1.08295950e-04 -1.23949489e-04
      -1.08361412e-04 -9.96158342e-05 -9.20872990e-05 -3.09670650e-05
      2.98007490e-06 4.65431476e-05 4.48108403e-05 4.30219043e-05
      -6.59903817e-05 -6.20258943e-05 -5.48677890e-05 -5.44148788e-05
      -4.33496461e-05 -7.11498506e-05 -8.99390070e-05 -1.10260356e-04
      -9.25890126e-05 -1.27862091e-04 -8.70368822e-05 4.82324467e-05
      4.24244827e-05 9.03379114e-05 1.19119592e-04 1.13063565e-04</_>
    <_>
      -3.72817849e-05 -3.32949276e-05 7.93951949e-06 1.96343462e-05
      -6.42170780e-05 -5.18250017e-05 -9.72046837e-05 -2.01927614e-04
      -8.08405675e-05 -4.05265746e-05 -2.88075535e-05 -2.15370856e-05
      3.63820109e-05 1.34855305e-04 1.96168854e-04 1.34513204e-04
      -4.87463658e-05 4.36869814e-05 4.40701224e-05 3.30232979e-05
      1.69359173e-05 -1.96819929e-05 -9.84381841e-05 -8.22038201e-05
      -9.61703108e-07 1.82381973e-05 -4.13308626e-05 2.96421440e-05
      8.84374676e-05 1.25071019e-04 1.79100345e-04 2.36977969e-04
      -7.97432731e-05 3.01570180e-05 2.43090599e-05 1.57788076e-04
      1.29720691e-04 1.39275857e-04 6.44637403e-05 6.81958045e-05
      1.15999239e-04 6.24747263e-05 -7.67460951e-05 -3.87651635e-05
      5.54677754e-05 2.15534619e-05 1.03459888e-05 9.90691187e-05
      -3.34211218e-05 1.04791099e-04 9.63811181e-05 1.36769799e-04
      1.36172617e-04 1.00186917e-04 1.20682489e-04 1.07972373e-04
      1.68889266e-04 9.61132610e-05 1.15042305e-04 6.10310235e-05
      -5.12686966e-05 -8.38787892e-05 -1.01233236e-04 -7.92034029e-07
      1.21796111e-04 2.41749993e-04 2.31110185e-04 1.49130894e-04
      1.86834557e-04 1.63743927e-04 1.93737811e-04 1.77873400e-04
      2.68283096e-04 1.99685848e-04 9.08946240e-05 -5.00813840e-05
      -9.98370233e-05 -6.53397801e-05 -3.81008358e-05 -9.29251382e-06
      1.03450067e-04 1.79729599e-04 2.14573782e-04 1.86271325e-04
      1.90910694e-04 1.48833395e-04 2.27384386e-04 1.74706060e-04
      1.75636596e-04 1.39615891e-04 7.06189821e-05 -9.84204089e-05
      -8.53256788e-05 -6.43401800e-05 -2.33041210e-05 -9.29251382e-06
      8.25439492e-05 1.52843480e-04 9.07316280e-05 1.15232921e-04
      5.80689230e-05 9.12185787e-05 2.27520723e-04 1.38794625e-04
      1.14762413e-04 9.37238001e-05 -4.53552411e-06 -8.20088608e-05
      -6.50643560e-05 -6.12556905e-05 -2.64234877e-05 3.14753961e-05
      1.11334390e-04 2.30534264e-04 1.99594651e-04 1.37772848e-04
      2.59592252e-05 5.54732287e-05 1.18657692e-04 4.91145111e-05
      -1.11876352e-05 -2.94369911e-05 -2.41429425e-05 -5.45223702e-05
      -1.29984299e-04 -1.30818502e-04 -1.96174478e-05 7.11721877e-05
      1.81573560e-04 1.95369110e-04 1.88845879e-04 1.73063061e-04
      7.86336313e-05 3.73886505e-05 8.06092139e-05 -6.45263890e-06
      -9.68149179e-05 -6.43456224e-05 -6.91632595e-05 -1.96363966e-04
      -1.59686868e-04 -8.97191276e-05 1.99954611e-05 4.09122222e-05
      1.97480505e-04 2.06258192e-04 2.06258192e-04 1.50191263e-04
      -6.67993254e-06 3.58645739e-05 4.27056439e-05 -1.31155612e-04
      -1.75163383e-04 -8.38739652e-05 -3.55954726e-05 -1.31251130e-04
      -2.23700372e-05 6.84132829e-05 1.12656278e-04 1.21391931e-04
      7.59296818e-05 1.97927453e-04 1.68551196e-04 4.73716609e-05
      -3.32276104e-05 -1.06015978e-04 -8.32054211e-05 -1.14669992e-05
      4.00212339e-05 9.52597384e-06 5.70259035e-05 3.70380003e-05
      1.42941281e-04 1.53696092e-04 1.98174384e-04 2.05167627e-04
      1.99721890e-05 6.98573567e-05 8.09309495e-05 -4.31798690e-05
      -1.38861084e-04 -1.54483743e-04 -1.37566836e-04 6.21924346e-06
      5.54507787e-05 5.40355104e-05 1.38359188e-04 9.39065794e-05
      1.29614244e-04 1.73475550e-04 2.13924184e-04 2.27846424e-04
      6.42005853e-06 2.78359903e-06 -3.06140209e-05 -1.62223412e-04
      -1.21081706e-04 -3.71678289e-05 6.20884675e-05 1.12600399e-04
      8.47795018e-05 1.14598341e-04 1.54922745e-04 3.08238959e-05
      5.77642604e-05 8.24950112e-05 1.22256723e-04 1.68935701e-04
      -5.68956202e-05 -8.95592893e-05 -1.99930728e-05 -6.32670490e-05
      -2.69688862e-05 9.05642955e-05 8.53752499e-05 1.25967388e-04
      6.53081152e-05 8.19048801e-05 9.36111901e-05 -1.41647715e-05
      -4.66747370e-05 -2.36813321e-05 5.55505903e-06 -1.57047543e-05
      -1.53355242e-04 -9.92563146e-05 -1.05783503e-04 -2.34333784e-04
      -2.21369337e-04 -2.33025494e-04 -2.19391717e-04 -1.47153885e-04
      -1.63144490e-04 -1.12994552e-04 -1.23645674e-04 -1.68961080e-04
      -1.48664985e-04 -6.28639682e-05 4.67106256e-05 4.62958960e-05
      2.21821233e-06 -3.05361095e-06 -8.25825919e-05 -2.01380593e-04
      -2.52624741e-04 -1.73181295e-04 -1.31338908e-04 -1.29405016e-04
      -1.01837555e-04 -1.28223764e-04 -1.51864850e-04 6.60199794e-06
      4.08686428e-05 2.90648204e-05 5.96516511e-05 5.02359508e-05</_>
    <_>
      -4.95889180e-05 -7.12971232e-05 -8.38078631e-05 -1.47505751e-04
      -8.26068936e-05 -1.06718559e-04 -1.41220269e-04 -1.75621899e-04
      -7.68477548e-05 -8.09925114e-05 -1.84888795e-05 6.82976770e-06
      7.16748109e-05 1.39261334e-04 1.59417963e-04 1.11218134e-04
      -6.19924176e-05 -3.22718879e-05 -6.64845720e-05 -9.84240396e-05
      -2.97796378e-05 1.89199618e-05 -6.06421090e-05 -6.50197035e-05
      -1.11734998e-05 2.96937706e-05 -1.77549027e-05 2.39647816e-05
      5.10513382e-05 6.25802277e-05 1.28742511e-04 1.65848716e-04
      -8.23393857e-05 -3.16229089e-05 2.23763936e-06 1.71194508e-04
      2.03630290e-04 1.60737909e-04 8.47092524e-05 5.49843171e-05
      7.44505596e-05 4.23582278e-05 -7.54510911e-05 -2.50672038e-05
      2.66557890e-05 -1.83913580e-05 -6.13996090e-05 5.50601253e-05
      4.49490017e-06 8.30171193e-05 1.30706772e-04 2.12722734e-04
      2.19110152e-04 1.47374652e-04 1.49498024e-04 1.49895364e-04
      1.32724424e-04 3.51071176e-05 1.49432026e-05 2.21039118e-05
      1.07417063e-05 -6.85495106e-05 -9.48101952e-05 -5.59082437e-05
      1.47584637e-04 2.20103117e-04 2.37353364e-04 2.77062267e-04
      2.48558441e-04 1.78505317e-04 1.71764579e-04 2.35719272e-04
      2.59391119e-04 8.80313091e-05 2.81082757e-05 -2.66730567e-05
      -1.22009578e-06 -7.26101280e-05 -5.16252258e-05 -4.33623754e-05
      7.64287761e-05 1.53427027e-04 1.75750509e-04 2.37286353e-04
      1.88639708e-04 1.71135631e-04 1.47687635e-04 1.11858666e-04
      7.22409241e-05 6.64309555e-05 1.92217940e-05 -2.11865317e-05
      4.22270459e-05 -2.35730658e-06 4.14772621e-05 1.06942116e-05
      1.28203843e-04 1.35383438e-04 6.52676026e-05 1.47996252e-04
      1.34595539e-04 1.27939100e-04 1.59630305e-04 8.46760886e-05
      5.26062195e-07 5.90562604e-06 -8.60240034e-05 -2.79572578e-05
      -1.44271107e-05 2.71317149e-05 3.58935722e-05 4.95119348e-05
      2.00115814e-04 2.45144591e-04 1.98393100e-04 1.86317062e-04
      1.15389135e-04 9.74791474e-05 6.08548035e-05 2.11574879e-05
      -3.14147437e-05 -9.30215392e-05 -8.68895004e-05 -4.55802401e-05
      -4.85754499e-05 -3.89081470e-06 2.59366043e-05 3.49462207e-05
      1.43194135e-04 1.91715255e-04 2.03137810e-04 2.59635039e-04
      1.67228383e-04 6.33503805e-05 3.36345583e-05 1.83432076e-05
      -3.97002404e-05 -8.31682264e-05 -1.18908218e-04 -7.94725784e-05
      -1.00059115e-04 1.39400518e-05 3.51335002e-05 2.06806362e-06
      1.33169669e-04 1.81690804e-04 1.76747839e-04 1.87123864e-04
      7.61402625e-05 4.11379297e-05 4.69953648e-06 -8.24723247e-05
      -1.05381689e-04 -9.54710849e-05 -1.05403778e-04 -4.86664576e-05
      -1.12215193e-05 1.13321883e-04 1.10466011e-04 9.38815137e-05
      1.47540501e-04 1.75932859e-04 1.12825917e-04 1.26888131e-04
      7.14327471e-05 -7.41585536e-05 -1.01750680e-04 -6.73601971e-05
      -5.15012434e-05 -5.13238083e-05 -5.79079424e-05 7.27115330e-05
      1.14458024e-04 1.48994397e-04 1.28449683e-04 1.36764545e-04
      1.04171173e-04 1.19587850e-04 5.71710698e-05 5.57892417e-05
      -1.02202772e-04 -1.23532489e-04 -1.24787606e-04 -8.08459954e-05
      -3.12805896e-05 7.37505161e-06 7.85806697e-05 1.35988463e-04
      1.17816147e-04 1.47149374e-04 1.29996624e-04 1.52821071e-04
      7.55285000e-05 7.62278796e-05 -3.97635158e-05 -4.36760347e-05
      -6.49070425e-05 -3.50410410e-05 2.84590515e-05 1.75845707e-05
      5.72256358e-05 1.18579112e-04 1.24526108e-04 1.15398485e-04
      7.77638779e-05 6.05049790e-05 6.44525107e-06 1.10230911e-04
      -4.38161878e-05 -6.34210446e-05 -5.10339196e-05 6.49806361e-06
      2.94533675e-06 5.87770301e-05 7.25474674e-05 6.65960688e-05
      2.46796753e-05 5.29062563e-05 5.74065780e-05 7.94536609e-05
      1.36440422e-05 3.73186072e-06 -6.79655423e-05 -7.21900724e-05
      -1.19945740e-04 -1.01710662e-04 -1.16725067e-04 -1.42847857e-04
      -1.53519301e-04 -1.87782629e-04 -1.73471868e-04 -1.79022289e-04
      -1.98413472e-04 -1.44903577e-04 -1.48906081e-04 -9.06724090e-05
      -1.21830220e-04 -6.95699637e-05 -5.15867032e-05 -5.34702413e-05
      1.11692261e-05 -1.37246407e-05 -1.21284618e-04 -1.44256148e-04
      -1.52591267e-04 -1.23568752e-04 -1.02039266e-04 -1.39402211e-04
      -1.58350173e-04 -1.99254966e-04 -2.07531251e-04 3.78566838e-05
      2.58455239e-05 5.00231108e-05 2.87348557e-05 1.70891399e-05</_>
    <_>
      -1.69817155e-04 -1.60518728e-04 -1.09754772e-04 -8.29163764e-05
      -5.42983289e-05 -6.35331817e-05 -4.89235281e-05 -5.01295071e-05
      2.26299085e-06 3.19200262e-05 8.60019427e-05 7.44791832e-05
      5.75909107e-05 7.07676372e-05 7.04614431e-05 5.05161843e-05
      -6.55416516e-05 -3.72020841e-05 -3.81569189e-05 -2.04584994e-05
      9.13581607e-06 1.96678538e-05 1.43699517e-05 -5.53130849e-06
      1.24302314e-05 4.83635740e-05 5.84416994e-05 1.07687993e-04
      1.18286167e-04 1.15419927e-04 9.47618173e-05 7.44279678e-05
      1.17089548e-05 3.75429045e-05 7.42239572e-05 1.31744193e-04
      1.50791093e-04 1.05494735e-04 6.69727669e-05 2.91798879e-05
      -1.15746507e-05 -2.38992870e-05 -2.18302230e-05 -8.38530923e-06
      4.51640408e-05 2.01075145e-05 3.56340097e-05 3.11847225e-06
      7.94752996e-05 1.01055550e-04 1.35552662e-04 1.08149194e-04
      1.25940423e-04 1.12057976e-04 8.12096405e-05 6.54403993e-05
      2.31439462e-05 -4.49795225e-05 -7.33700290e-05 -4.44766010e-05
      -2.74045192e-06 -5.95960319e-06 -9.02689499e-06 -3.57565477e-05
      1.29321692e-04 1.78095186e-04 1.94824141e-04 9.75425282e-05
      1.38182309e-04 1.07168169e-04 7.50139516e-05 6.52296294e-05
      1.69652558e-05 -5.33202183e-05 -7.03987243e-05 -3.68809378e-05
      2.62827007e-06 -1.98688176e-05 -9.68419272e-07 5.05007156e-05
      1.04282117e-04 1.56697060e-04 1.91164043e-04 9.50834656e-05
      1.44713165e-04 1.12479072e-04 7.98521869e-05 3.49923503e-05
      -1.77293150e-05 -5.53040336e-05 -6.63004685e-05 -4.41906377e-05
      1.47786959e-05 -1.66468853e-05 -1.58996900e-05 6.84582774e-05
      1.54922047e-04 1.88884500e-04 1.72883738e-04 1.28645042e-04
      1.40009332e-04 1.02415084e-04 1.06254352e-04 7.68420286e-05
      1.61614353e-05 -3.49538350e-05 -7.95811720e-05 -7.25847858e-05
      -2.67879586e-05 -1.83607772e-05 -4.31835042e-06 1.14296185e-04
      1.57417657e-04 2.05757242e-04 2.15839507e-04 1.72688946e-04
      1.24594648e-04 9.50033063e-05 4.49868130e-05 1.30790095e-05
      -1.50730857e-05 -7.93895451e-05 -1.19251774e-04 -1.03146187e-04
      -8.28232223e-05 -6.00337080e-05 2.45195115e-05 1.04744271e-04
      9.74642244e-05 1.29017906e-04 1.69875188e-04 2.02815005e-04
      1.44724720e-04 9.00606246e-05 2.90576645e-05 -3.58918005e-05
      -8.62161833e-05 -1.05721083e-04 -1.31169945e-04 -1.17525604e-04
      -8.50058859e-05 -1.93030382e-06 6.59939178e-05 1.25466377e-05
      1.21031619e-04 1.25623541e-04 1.62975470e-04 1.96356516e-04
      1.31306559e-04 8.44404567e-05 5.46290139e-05 -5.03836382e-05
      -1.48907915e-04 -1.17973759e-04 -1.09433160e-04 -6.33300006e-05
      5.49213200e-06 7.97861285e-05 6.22268126e-05 3.31686570e-05
      1.40116026e-04 1.59227784e-04 1.59944335e-04 1.50147942e-04
      1.31582463e-04 8.14805244e-05 4.04222410e-05 2.62245267e-05
      1.46057710e-05 1.01788992e-05 1.48862782e-05 4.63322140e-05
      1.29071501e-04 1.33377049e-04 1.12085487e-04 5.48408389e-05
      9.84631770e-05 1.09725886e-04 1.05159772e-04 5.85362432e-05
      -4.38877760e-05 -1.55568079e-04 -1.20293713e-04 -1.08408603e-04
      -3.71726092e-05 3.32497511e-05 8.41433066e-05 1.19563403e-04
      1.12807473e-04 9.06512068e-05 3.33914832e-05 1.64205576e-05
      6.12440999e-05 5.23419876e-05 2.73123642e-05 1.79427007e-05
      -1.01243231e-05 -8.25792813e-05 -9.05676861e-05 -5.58363172e-05
      -3.60552403e-05 8.93754350e-06 2.71236167e-05 1.30652279e-05
      -2.21345472e-05 -2.81563898e-05 -2.81563898e-05 -1.73576354e-05
      -8.04854935e-05 -3.73575422e-05 2.75291804e-05 8.79951112e-05
      6.24419117e-05 -1.85813803e-06 -1.86932866e-05 -1.30593198e-05
      -7.16810837e-06 -8.64602953e-06 -2.94170331e-05 -5.10483696e-05
      -7.00683449e-05 -1.01524187e-04 -1.13052920e-04 -1.24874437e-04
      -1.32351153e-04 -5.04774689e-05 -1.45354088e-05 -2.65725521e-06
      -3.78669174e-05 -1.41010329e-04 -2.24496456e-04 -2.10959595e-04
      -1.85450175e-04 -1.80035233e-04 -1.81665091e-04 -1.51428205e-04
      -1.35610346e-04 -1.26810861e-04 -1.14476403e-04 -1.03273211e-04
      -1.80713050e-05 2.25279437e-05 3.14120553e-05 2.13538769e-05
      1.50224776e-06 -8.75153128e-05 -1.89056300e-04 -1.77528200e-04
      -1.79963317e-04 -2.12891391e-04 -1.67305130e-04 -5.49770630e-05
      -3.57864155e-05 -6.48603891e-05 -5.50252626e-05 -4.17073243e-05</_>
    <_>
      -6.53169773e-05 -6.50180955e-05 -2.83740574e-05 -5.19035239e-05
      -9.54206480e-05 -1.26086175e-04 -1.20195342e-04 -1.44726378e-04
      -5.63769718e-05 -1.77954189e-05 1.12798998e-05 -1.11264389e-05
      1.21621515e-05 5.05821881e-05 7.83108699e-05 1.05934349e-04
      -1.02895341e-04 -4.69325023e-05 -6.72458191e-05 -1.22089594e-04
      -1.59398740e-04 -8.76573613e-05 -5.28640448e-05 -3.69792215e-05
      -1.37871139e-05 2.41945691e-05 5.47077216e-05 9.15550117e-05
      7.69209582e-05 4.22570884e-05 8.33305385e-05 1.56205730e-04
      -9.87595777e-05 -4.09602819e-07 1.11571699e-05 7.29989697e-05
      1.10063564e-04 1.43580255e-04 1.10446752e-04 3.52293209e-05
      1.00132638e-05 1.32173700e-05 -1.85604586e-05 -1.52509392e-05
      1.98458692e-05 -5.40593192e-06 1.48046838e-05 6.82447353e-05
      2.12314408e-05 8.10113779e-05 1.06485859e-04 1.56798182e-04
      1.74449378e-04 1.28635234e-04 4.99568450e-05 2.01948333e-05
      2.50530647e-05 -1.66531336e-05 -1.98250746e-05 -6.21573781e-05
      -3.69557165e-05 -3.93802038e-05 -4.41442935e-05 -8.22568836e-06
      8.16285319e-05 1.53071160e-04 1.89602957e-04 2.16556451e-04
      2.07799792e-04 1.14249560e-04 8.52384255e-05 8.72754536e-05
      6.82708269e-05 -2.42441365e-06 -2.33694573e-05 -9.12221803e-05
      -8.03312796e-05 -5.09557431e-05 -4.64446894e-05 -3.55883603e-05
      3.40028564e-05 1.27010819e-04 1.71774882e-04 1.92481049e-04
      1.62802986e-04 1.07260952e-04 9.97175011e-05 5.88342809e-05
      -9.10525250e-06 -4.49018662e-05 -6.01585780e-05 -1.09341308e-04
      -6.48558125e-05 -4.15833783e-05 -4.81716888e-05 -4.54219226e-05
      5.63435497e-05 9.75766379e-05 1.01007514e-04 1.29279564e-04
      1.12556365e-04 8.42051304e-05 9.29684611e-05 3.51246490e-05
      -3.80150123e-05 -5.21341935e-05 -1.09251385e-04 -1.13808652e-04
      -7.31151304e-05 -3.94361559e-05 -4.54219226e-05 -1.65897018e-05
      8.12922153e-05 1.24674028e-04 1.28042768e-04 1.28571526e-04
      8.95271151e-05 6.78181750e-05 1.99391907e-05 -4.44121906e-05
      -6.95048439e-05 -1.07667627e-04 -1.17739364e-04 -1.30264132e-04
      -1.40416683e-04 -1.20643388e-04 -4.49755935e-05 1.74040615e-05
      8.22583243e-05 1.18213102e-04 1.30242799e-04 1.49818938e-04
      1.19679258e-04 6.91475798e-05 1.39683298e-05 -6.18722843e-05
      -1.00824647e-04 -1.22783444e-04 -1.44193487e-04 -1.58774288e-04
      -1.67103513e-04 -1.33226436e-04 -7.10940440e-05 -7.63923254e-06
      1.16609146e-04 1.18213102e-04 1.32638161e-04 1.35663475e-04
      8.39855056e-05 6.25725224e-05 -7.29850672e-06 -1.24620507e-04
      -1.50343432e-04 -1.51987493e-04 -1.43557263e-04 -1.39211421e-04
      -1.00273966e-04 -4.96740904e-05 -3.01845084e-05 -2.08818637e-05
      1.13361639e-04 1.09807785e-04 1.12258189e-04 1.11046655e-04
      7.57712187e-05 -1.71226711e-05 -9.43533523e-05 -1.28549102e-04
      -1.12942405e-04 -1.13752300e-04 -1.00604884e-04 -4.47336497e-05
      -3.82159624e-06 6.77626358e-21 6.77626358e-21 6.77626358e-21
      6.03065528e-05 5.78988765e-05 6.47531269e-05 4.43145655e-05
      -2.02252286e-05 -6.23026936e-05 -1.28333631e-04 -1.15740680e-04
      -1.02183389e-04 -7.46454170e-05 -3.26779846e-05 -2.61384366e-06
      -1.66335508e-06 6.77626358e-21 6.77626358e-21 6.77626358e-21
      7.63723874e-05 5.56790401e-05 -1.58108960e-05 -5.63690010e-05
      -2.43950999e-05 -1.24808003e-05 -2.25867188e-05 -4.54464061e-05
      -5.43257556e-05 -2.46320578e-05 -1.90072733e-05 -3.16404694e-05
      -3.80674246e-05 -4.92168328e-05 -4.92168328e-05 -7.89574824e-06
      5.45920993e-05 1.37988281e-05 -5.43307067e-07 1.04151268e-05
      4.45156948e-05 6.39149803e-05 3.73496332e-05 -1.18180760e-05
      -5.52512247e-05 -4.69216466e-05 -4.79744122e-05 -6.92929316e-05
      -8.11361169e-05 -9.89263790e-05 -1.15823270e-04 -1.03889659e-04
      -2.85159458e-05 -1.47654318e-05 -1.92856933e-05 -5.47638010e-05
      -3.46080742e-05 -6.05936257e-05 -5.19803434e-05 -8.10940182e-05
      -1.19524106e-04 -9.42133338e-05 -1.06849759e-04 -1.06278363e-04
      -1.05554471e-04 -9.75314542e-05 -5.56325540e-05 -3.22193700e-05
      4.77491194e-05 2.49064833e-05 -3.97658659e-05 -6.01805150e-05
      -3.36573285e-05 -6.28471680e-05 -4.52528984e-05 -6.71668531e-05
      -8.32817605e-05 -1.29303458e-04 -1.40367236e-04 -3.07189221e-05
      -1.03312814e-05 -1.79744748e-05 6.46088984e-06 2.59426342e-05</_>
    <_>
      -1.22872196e-04 -1.27556064e-04 -1.03007857e-04 -5.50175573e-05
      -2.98204541e-05 -3.67199646e-05 -4.61923773e-05 -8.61892840e-05
      -9.04273766e-05 -1.67739945e-05 7.83580399e-05 4.04393759e-05
      -4.18918171e-05 1.05758181e-05 1.90542341e-05 1.90542341e-05
      -1.36072573e-04 -1.18285578e-04 -7.93627187e-05 -6.46841363e-05
      -3.33003845e-05 -1.98963771e-05 -4.46446356e-05 -2.40384343e-05
      -2.15062100e-05 4.68218823e-05 3.98236443e-05 6.01044958e-05
      -2.62107933e-05 -1.86825910e-05 3.39991821e-05 5.56154519e-05
      -1.31697787e-04 -4.04978709e-05 3.81498903e-05 1.13172668e-04
      1.18063239e-04 5.45169569e-05 7.67379061e-06 -1.58919902e-05
      -1.39866179e-05 5.89602314e-05 1.89471957e-05 -3.05431604e-06
      -4.73874534e-05 -1.39314856e-04 -1.05531151e-04 -4.19345379e-05
      -2.97401148e-05 5.47114541e-05 1.25187580e-04 1.67239705e-04
      7.76149100e-05 -2.39865858e-05 -4.71950698e-05 -4.17558404e-05
      -9.21504616e-05 -5.61665729e-05 4.97833644e-05 -8.63807145e-06
      -3.20651852e-05 -1.79904164e-04 -1.57129325e-04 -7.16743962e-05
      1.06375825e-04 1.60243944e-04 2.17260866e-04 1.84089877e-04
      8.88236100e-05 4.39857831e-05 1.47055234e-05 1.19021197e-05
      -5.78033041e-06 -5.51424419e-05 -2.52085047e-05 -9.76880910e-05
      -1.29459615e-04 -1.89439277e-04 -1.55273665e-04 -8.39539716e-05
      4.77784524e-05 1.07069929e-04 2.16259024e-04 2.08010984e-04
      1.74216679e-04 1.49303945e-04 1.21555189e-04 9.30351162e-05
      1.30791404e-05 -5.02524599e-05 -6.52032668e-06 -6.81209858e-05
      -2.85497699e-05 -1.01272781e-04 -7.80187765e-05 -4.42425517e-05
      6.61347076e-05 8.21726862e-05 1.02122125e-04 1.82555363e-04
      1.88063161e-04 1.80602830e-04 1.76037414e-04 1.36896866e-04
      6.02672626e-05 1.14037366e-05 -1.90646824e-05 -3.10006326e-05
      -3.20424851e-06 -2.60932829e-05 -4.78979018e-06 6.76468480e-05
      5.03218871e-05 1.14651302e-04 1.99006841e-04 1.52601468e-04
      2.09116071e-04 2.42466180e-04 1.38829739e-04 1.30568325e-04
      9.78958487e-05 3.08439508e-06 -6.03857989e-05 -8.74863908e-05
      -1.05819490e-04 -7.26792277e-05 1.75497712e-06 2.97386050e-05
      4.61706122e-07 3.31751689e-05 1.21606099e-04 1.41557000e-04
      1.32506029e-04 2.60877441e-05 6.53468524e-05 9.78261232e-05
      5.12680017e-05 -1.11694862e-05 -4.38296411e-05 -4.64227269e-05
      -4.31389890e-05 -2.03106629e-05 7.05081948e-06 1.57780705e-05
      1.04076071e-05 5.74261612e-05 9.42690531e-05 5.97107755e-05
      5.66075151e-08 -8.43542584e-05 -1.06711326e-04 -1.40353208e-04
      -8.72666787e-05 -2.93013745e-05 1.25382348e-05 1.01707803e-04
      1.12048125e-04 1.43752579e-04 1.22591518e-04 1.00113051e-04
      1.89832517e-05 9.17256839e-05 3.82426333e-05 -1.52212288e-05
      -1.17085016e-04 -1.85474375e-04 -1.78112969e-04 -1.16668991e-04
      -1.07882785e-04 -1.53213587e-05 6.12250660e-05 2.57274573e-04
      2.32278559e-04 2.09923048e-04 1.68888451e-04 1.41594923e-04
      2.37152040e-06 3.55804732e-05 -1.44096011e-05 -4.50673069e-05
      -1.38217001e-04 -1.79504277e-04 -1.61324424e-04 -1.40498567e-04
      -1.01809543e-04 -4.19628559e-05 8.50427241e-05 2.18752335e-04
      2.30512480e-04 2.11731895e-04 2.05605349e-04 1.46801030e-04
      -8.14554660e-05 4.05750689e-05 -2.36268852e-06 -8.04258889e-05
      -1.15011615e-04 -7.99302579e-05 -4.27126979e-05 -5.01569884e-05
      9.78429489e-06 8.45339309e-06 9.13087351e-05 1.76868489e-04
      2.27773853e-04 1.98622176e-04 1.63271077e-04 1.43418976e-04
      -3.06788897e-05 3.62746505e-05 1.01614874e-04 1.03476938e-04
      6.97799187e-05 -1.63892200e-05 -4.70069863e-05 -1.34754991e-05
      3.91508293e-05 1.12288959e-04 1.64977610e-04 1.98027672e-04
      1.81628158e-04 1.16466763e-04 5.91411808e-05 -2.47328699e-05
      -1.42780205e-04 -8.95616322e-05 3.02657263e-05 3.63385807e-05
      2.74595641e-05 -8.46328362e-07 2.34822073e-05 4.43933750e-05
      3.59218830e-05 1.70198218e-05 -7.65530967e-06 2.66297811e-05
      1.30000763e-05 1.33822514e-05 2.38718803e-05 -6.14481542e-05
      -5.03080628e-05 -8.65856782e-05 -1.61207936e-04 -1.98805210e-04
      -1.69472260e-04 -1.23658203e-04 -7.79514157e-05 -1.16906594e-05
      -1.78729570e-05 -6.45528125e-05 -1.07948239e-04 5.95382480e-05
      6.04453635e-05 3.99184792e-05 8.58345345e-07 1.86777470e-05</_>
    <_>
      -3.38577956e-05 -4.25251637e-05 -4.66211304e-06 -2.99421231e-06
      -4.21314471e-05 -1.34121554e-04 -1.42761157e-04 -1.57519011e-04
      -4.73617147e-05 -8.05532400e-05 -7.91310013e-05 -9.26936482e-05
      -7.04339764e-05 -1.68980878e-05 -4.73636874e-07 -5.36192672e-08
      -9.82044876e-05 -1.10551366e-04 -1.05888932e-04 -1.16319105e-04
      -1.24497179e-04 -9.83839491e-05 -1.13678107e-04 -4.95995591e-05
      -1.74073630e-05 -9.00991290e-05 -1.52539476e-04 -9.99111435e-05
      -8.61485169e-05 -8.93319375e-05 -4.62420649e-05 2.53615940e-06
      -1.48951629e-04 -1.13293456e-04 -7.62553464e-05 1.83553602e-05
      6.96795396e-05 7.70208499e-05 5.59560431e-05 9.54008792e-05
      4.59252515e-05 -4.20228498e-05 -1.64858197e-04 -1.55722999e-04
      -9.22360268e-05 -8.57544219e-05 -3.28024435e-05 3.32482377e-05
      -4.21106670e-05 -3.46386369e-05 3.51669805e-05 1.42520250e-04
      2.29152691e-04 2.22777206e-04 1.90802690e-04 1.40049611e-04
      6.22284570e-05 3.87655964e-05 6.75922274e-05 -1.19732640e-05
      -3.13535857e-05 -7.10243330e-05 -2.79451815e-05 2.50149205e-05
      6.93977709e-05 8.94865079e-05 1.29691703e-04 1.30270899e-04
      1.63632780e-04 1.75487876e-04 2.05808028e-04 2.56128202e-04
      2.71244033e-04 1.84506673e-04 7.35646026e-05 -4.90043130e-05
      -5.55133629e-05 -5.31373189e-05 -2.47445696e-05 -1.28154693e-06
      9.50831818e-05 1.43278274e-04 1.73425738e-04 1.82734439e-04
      1.85006822e-04 1.91927014e-04 1.77926966e-04 2.08261015e-04
      2.43386399e-04 1.58162671e-04 6.15319295e-05 -3.47658679e-05
      7.36621314e-06 -4.98650224e-05 -6.25936227e-05 -4.54033507e-05
      2.40571280e-05 4.10743960e-05 2.52181485e-06 3.70051384e-05
      1.08744673e-04 1.31647001e-04 1.52045119e-04 1.24675847e-04
      1.12725305e-04 9.55553478e-05 -7.33197521e-05 -9.93520953e-05
      -7.16447539e-05 -8.63072128e-05 -8.22168804e-05 -2.12057112e-05
      2.77031140e-05 6.63051105e-05 6.09480012e-05 3.39434373e-05
      1.72892924e-05 9.23835905e-05 6.71269954e-05 5.14711319e-05
      3.49021211e-05 -3.08560157e-05 -1.60968862e-04 -1.91550542e-04
      -2.23021561e-04 -1.94676846e-04 -1.31162407e-04 -2.65761173e-05
      -1.30382505e-05 3.36509329e-05 4.36689916e-05 3.79784287e-05
      2.75142156e-05 7.10347667e-05 4.25500075e-05 5.48188764e-05
      -5.02344301e-06 -6.33847812e-05 -1.96680325e-04 -2.42906710e-04
      -2.35428524e-04 -1.69636609e-04 -1.14897062e-04 -7.25779319e-05
      1.73312801e-05 4.86722711e-05 5.86903298e-05 2.57311804e-05
      -2.46620348e-05 4.97657966e-05 1.80620227e-05 -2.90351181e-05
      -5.69944277e-05 -7.63244316e-05 -1.23202044e-04 -1.20788376e-04
      -9.58355740e-05 -7.30993488e-05 -5.03568881e-05 -2.92753084e-05
      5.26094518e-05 5.17373082e-05 1.95539815e-05 -2.67687010e-05
      -2.84490616e-05 -4.70462801e-05 -7.34769055e-05 -1.75155092e-05
      1.54290701e-05 -1.00725165e-05 -1.42737736e-05 7.99504414e-06
      4.12390509e-05 2.14491738e-05 3.48994909e-05 2.46212403e-05
      -2.20918646e-05 -2.42454316e-05 -4.47575403e-05 -1.06366155e-04
      -1.30834262e-04 -1.28819200e-04 -1.17971642e-04 -5.86359347e-05
      -1.07418909e-05 3.39611797e-05 8.64857066e-05 3.94619019e-05
      3.77181532e-05 3.47466521e-05 1.82540007e-05 1.21987523e-05
      -8.84642723e-05 -5.27175289e-05 -9.95193768e-05 -1.68057071e-04
      -1.08301254e-04 -9.32728581e-05 2.88954543e-05 3.36491139e-05
      7.37860755e-05 1.51618500e-04 1.24791128e-04 3.56116425e-06
      -1.93848955e-05 -5.38961540e-05 -5.38961540e-05 6.75541287e-07
      -4.97205001e-05 -2.82992623e-05 3.31439605e-06 -1.49205080e-05
      -1.15830717e-05 3.18831444e-05 1.25505918e-04 1.56680268e-04
      1.24323153e-04 1.03010942e-04 7.14883572e-05 -4.53256725e-05
      -7.61595948e-05 -1.01493053e-04 -1.19719130e-04 -1.02273865e-04
      -1.16443727e-04 -8.79854924e-05 -9.65178042e-05 -1.53912275e-04
      -1.54191250e-04 -2.13815103e-04 -1.04955143e-04 -2.37299664e-05
      2.14003649e-05 -6.75123238e-06 -5.39482935e-05 -6.27604168e-05
      -9.39372694e-05 -9.73145798e-05 -6.20898354e-05 -3.75062336e-05
      -2.75978018e-05 -6.48168570e-05 -1.53756133e-04 -2.08616519e-04
      -2.06799406e-04 -1.73337234e-04 -6.67810236e-05 -5.01113318e-05
      4.26812767e-06 -8.91128002e-05 -1.73301712e-04 2.94935016e-05
      1.03566555e-04 9.87427338e-05 8.15106032e-05 8.02302966e-05</_>
    <_>
      -5.77837745e-05 -3.19554829e-06 9.43082159e-06 -2.24154210e-05
      -1.11038258e-04 -1.92810781e-04 -2.37978325e-04 -2.65738578e-04
      -2.34144885e-04 -2.56175001e-04 -1.93650980e-04 -1.12671500e-04
      -2.88106839e-05 1.61892604e-04 2.09508784e-04 2.05093005e-04
      -8.11546051e-05 2.08769070e-05 5.93651066e-06 -9.42806437e-05
      -1.80561969e-04 -2.44330702e-04 -2.35282685e-04 -2.12538842e-04
      -2.03726755e-04 -2.01407514e-04 -1.96257999e-04 -1.50041247e-04
      -7.28518280e-05 7.22194964e-05 1.60023512e-04 1.10559267e-04
      -3.13761120e-05 4.81728894e-05 5.35546205e-05 7.60083276e-05
      6.52381932e-05 -3.30828952e-05 -6.16695543e-05 -6.72302631e-05
      -9.07010181e-05 -8.86663038e-05 -1.15190436e-04 -7.75911030e-05
      2.97276802e-05 2.02648607e-05 3.31560623e-05 3.51980707e-05
      -9.14233260e-06 8.40601861e-05 1.76599278e-04 1.84327902e-04
      2.07291581e-04 7.55604196e-05 -5.45272233e-05 -5.67887218e-05
      -8.56856132e-05 -1.06659172e-04 -4.61781747e-05 3.89084998e-05
      6.37878693e-05 3.92389375e-05 -5.41237387e-05 -2.74597060e-05
      1.04843617e-04 1.33389753e-04 2.03739386e-04 2.54978047e-04
      2.19038993e-04 1.75946348e-04 1.27900596e-04 1.00504367e-04
      2.04966163e-05 -5.09218698e-05 1.97099416e-05 6.60958613e-05
      4.58140967e-05 2.67529367e-06 -4.23304627e-05 -9.54715433e-05
      4.51879641e-05 1.02013655e-04 1.50348933e-04 2.26181030e-04
      2.35993473e-04 1.84504548e-04 5.11720464e-05 5.57206731e-05
      9.02176398e-05 6.45954351e-05 8.83236207e-05 5.56503983e-05
      7.49202518e-05 -3.14665740e-05 -3.82938451e-05 -6.34135286e-05
      4.69377046e-05 8.94117766e-05 9.27357323e-05 1.20799814e-04
      1.66197337e-04 1.63606135e-04 1.09897046e-04 -9.32550211e-06
      -3.51909875e-05 2.56040639e-05 4.98757481e-06 -2.95518639e-05
      2.41378166e-05 -5.42159569e-06 -2.49446603e-05 5.97329381e-05
      8.10532438e-05 1.31075125e-04 1.42428820e-04 9.67693632e-05
      3.14557692e-05 1.22473779e-04 7.07607469e-05 2.45206274e-06
      -1.11613925e-04 -1.02400903e-04 -5.90525415e-05 -7.67600213e-05
      -8.86271373e-05 -8.93324104e-05 1.68214283e-05 8.30881690e-05
      7.89395490e-05 1.30880566e-04 1.38691626e-04 1.36542047e-04
      8.15975800e-05 1.45203221e-05 7.83722426e-05 5.29350255e-05
      -1.52290122e-05 -6.75812698e-05 -1.22902929e-04 -1.12071626e-04
      -1.51740533e-04 -3.64515108e-05 3.44355576e-05 7.41276453e-05
      8.24877861e-05 1.32687710e-04 1.40498756e-04 1.04822684e-04
      3.45513836e-05 1.69885916e-05 -4.25216131e-05 -3.70193047e-05
      -6.97922442e-05 -9.63445782e-05 -7.59616159e-05 -1.43248486e-04
      -2.52164918e-05 9.06957284e-05 1.03925377e-04 1.19919205e-04
      8.29619603e-05 1.26445870e-04 1.00823367e-04 7.26821963e-05
      2.53437502e-05 -5.95315541e-05 -1.25222228e-04 -7.92106875e-05
      -5.94535486e-05 -2.31327449e-05 -7.45624930e-05 1.53499695e-05
      8.42888840e-05 1.20762837e-04 1.34226852e-04 1.47550716e-04
      7.37304208e-06 7.49340761e-05 6.91006499e-05 5.08163539e-05
      -3.83498736e-05 -1.09964931e-04 -1.16002477e-04 -1.12391266e-04
      -1.07137357e-05 5.19035566e-05 -8.77439652e-06 5.05584940e-05
      9.47517547e-05 1.30400687e-04 1.48019652e-04 1.62695607e-04
      -6.56186676e-05 1.58603725e-05 -5.63068670e-06 -4.40492331e-05
      -1.98154303e-05 -5.59137115e-05 -2.97593433e-05 3.61497114e-05
      9.75159419e-05 3.71942515e-05 4.19191747e-05 8.07437391e-05
      9.18304213e-05 1.09259272e-04 1.02067890e-04 1.52062596e-04
